tree
version=v2
num_class=1
num_tree_per_iteration=1
label_index=0
max_feature_idx=1710
objective=binary sigmoid:1
feature_names=Column_0 Column_1 Column_2 Column_3 Column_4 Column_5 Column_6 Column_7 Column_8 Column_9 Column_10 Column_11 Column_12 Column_13 Column_14 Column_15 Column_16 Column_17 Column_18 Column_19 Column_20 Column_21 Column_22 Column_23 Column_24 Column_25 Column_26 Column_27 Column_28 Column_29 Column_30 Column_31 Column_32 Column_33 Column_34 Column_35 Column_36 Column_37 Column_38 Column_39 Column_40 Column_41 Column_42 Column_43 Column_44 Column_45 Column_46 Column_47 Column_48 Column_49 Column_50 Column_51 Column_52 Column_53 Column_54 Column_55 Column_56 Column_57 Column_58 Column_59 Column_60 Column_61 Column_62 Column_63 Column_64 Column_65 Column_66 Column_67 Column_68 Column_69 Column_70 Column_71 Column_72 Column_73 Column_74 Column_75 Column_76 Column_77 Column_78 Column_79 Column_80 Column_81 Column_82 Column_83 Column_84 Column_85 Column_86 Column_87 Column_88 Column_89 Column_90 Column_91 Column_92 Column_93 Column_94 Column_95 Column_96 Column_97 Column_98 Column_99 Column_100 Column_101 Column_102 Column_103 Column_104 Column_105 Column_106 Column_107 Column_108 Column_109 Column_110 Column_111 Column_112 Column_113 Column_114 Column_115 Column_116 Column_117 Column_118 Column_119 Column_120 Column_121 Column_122 Column_123 Column_124 Column_125 Column_126 Column_127 Column_128 Column_129 Column_130 Column_131 Column_132 Column_133 Column_134 Column_135 Column_136 Column_137 Column_138 Column_139 Column_140 Column_141 Column_142 Column_143 Column_144 Column_145 Column_146 Column_147 Column_148 Column_149 Column_150 Column_151 Column_152 Column_153 Column_154 Column_155 Column_156 Column_157 Column_158 Column_159 Column_160 Column_161 Column_162 Column_163 Column_164 Column_165 Column_166 Column_167 Column_168 Column_169 Column_170 Column_171 Column_172 Column_173 Column_174 Column_175 Column_176 Column_177 Column_178 Column_179 Column_180 Column_181 Column_182 Column_183 Column_184 Column_185 Column_186 Column_187 Column_188 Column_189 Column_190 Column_191 Column_192 Column_193 Column_194 Column_195 Column_196 Column_197 Column_198 Column_199 Column_200 Column_201 Column_202 Column_203 Column_204 Column_205 Column_206 Column_207 Column_208 Column_209 Column_210 Column_211 Column_212 Column_213 Column_214 Column_215 Column_216 Column_217 Column_218 Column_219 Column_220 Column_221 Column_222 Column_223 Column_224 Column_225 Column_226 Column_227 Column_228 Column_229 Column_230 Column_231 Column_232 Column_233 Column_234 Column_235 Column_236 Column_237 Column_238 Column_239 Column_240 Column_241 Column_242 Column_243 Column_244 Column_245 Column_246 Column_247 Column_248 Column_249 Column_250 Column_251 Column_252 Column_253 Column_254 Column_255 Column_256 Column_257 Column_258 Column_259 Column_260 Column_261 Column_262 Column_263 Column_264 Column_265 Column_266 Column_267 Column_268 Column_269 Column_270 Column_271 Column_272 Column_273 Column_274 Column_275 Column_276 Column_277 Column_278 Column_279 Column_280 Column_281 Column_282 Column_283 Column_284 Column_285 Column_286 Column_287 Column_288 Column_289 Column_290 Column_291 Column_292 Column_293 Column_294 Column_295 Column_296 Column_297 Column_298 Column_299 Column_300 Column_301 Column_302 Column_303 Column_304 Column_305 Column_306 Column_307 Column_308 Column_309 Column_310 Column_311 Column_312 Column_313 Column_314 Column_315 Column_316 Column_317 Column_318 Column_319 Column_320 Column_321 Column_322 Column_323 Column_324 Column_325 Column_326 Column_327 Column_328 Column_329 Column_330 Column_331 Column_332 Column_333 Column_334 Column_335 Column_336 Column_337 Column_338 Column_339 Column_340 Column_341 Column_342 Column_343 Column_344 Column_345 Column_346 Column_347 Column_348 Column_349 Column_350 Column_351 Column_352 Column_353 Column_354 Column_355 Column_356 Column_357 Column_358 Column_359 Column_360 Column_361 Column_362 Column_363 Column_364 Column_365 Column_366 Column_367 Column_368 Column_369 Column_370 Column_371 Column_372 Column_373 Column_374 Column_375 Column_376 Column_377 Column_378 Column_379 Column_380 Column_381 Column_382 Column_383 Column_384 Column_385 Column_386 Column_387 Column_388 Column_389 Column_390 Column_391 Column_392 Column_393 Column_394 Column_395 Column_396 Column_397 Column_398 Column_399 Column_400 Column_401 Column_402 Column_403 Column_404 Column_405 Column_406 Column_407 Column_408 Column_409 Column_410 Column_411 Column_412 Column_413 Column_414 Column_415 Column_416 Column_417 Column_418 Column_419 Column_420 Column_421 Column_422 Column_423 Column_424 Column_425 Column_426 Column_427 Column_428 Column_429 Column_430 Column_431 Column_432 Column_433 Column_434 Column_435 Column_436 Column_437 Column_438 Column_439 Column_440 Column_441 Column_442 Column_443 Column_444 Column_445 Column_446 Column_447 Column_448 Column_449 Column_450 Column_451 Column_452 Column_453 Column_454 Column_455 Column_456 Column_457 Column_458 Column_459 Column_460 Column_461 Column_462 Column_463 Column_464 Column_465 Column_466 Column_467 Column_468 Column_469 Column_470 Column_471 Column_472 Column_473 Column_474 Column_475 Column_476 Column_477 Column_478 Column_479 Column_480 Column_481 Column_482 Column_483 Column_484 Column_485 Column_486 Column_487 Column_488 Column_489 Column_490 Column_491 Column_492 Column_493 Column_494 Column_495 Column_496 Column_497 Column_498 Column_499 Column_500 Column_501 Column_502 Column_503 Column_504 Column_505 Column_506 Column_507 Column_508 Column_509 Column_510 Column_511 Column_512 Column_513 Column_514 Column_515 Column_516 Column_517 Column_518 Column_519 Column_520 Column_521 Column_522 Column_523 Column_524 Column_525 Column_526 Column_527 Column_528 Column_529 Column_530 Column_531 Column_532 Column_533 Column_534 Column_535 Column_536 Column_537 Column_538 Column_539 Column_540 Column_541 Column_542 Column_543 Column_544 Column_545 Column_546 Column_547 Column_548 Column_549 Column_550 Column_551 Column_552 Column_553 Column_554 Column_555 Column_556 Column_557 Column_558 Column_559 Column_560 Column_561 Column_562 Column_563 Column_564 Column_565 Column_566 Column_567 Column_568 Column_569 Column_570 Column_571 Column_572 Column_573 Column_574 Column_575 Column_576 Column_577 Column_578 Column_579 Column_580 Column_581 Column_582 Column_583 Column_584 Column_585 Column_586 Column_587 Column_588 Column_589 Column_590 Column_591 Column_592 Column_593 Column_594 Column_595 Column_596 Column_597 Column_598 Column_599 Column_600 Column_601 Column_602 Column_603 Column_604 Column_605 Column_606 Column_607 Column_608 Column_609 Column_610 Column_611 Column_612 Column_613 Column_614 Column_615 Column_616 Column_617 Column_618 Column_619 Column_620 Column_621 Column_622 Column_623 Column_624 Column_625 Column_626 Column_627 Column_628 Column_629 Column_630 Column_631 Column_632 Column_633 Column_634 Column_635 Column_636 Column_637 Column_638 Column_639 Column_640 Column_641 Column_642 Column_643 Column_644 Column_645 Column_646 Column_647 Column_648 Column_649 Column_650 Column_651 Column_652 Column_653 Column_654 Column_655 Column_656 Column_657 Column_658 Column_659 Column_660 Column_661 Column_662 Column_663 Column_664 Column_665 Column_666 Column_667 Column_668 Column_669 Column_670 Column_671 Column_672 Column_673 Column_674 Column_675 Column_676 Column_677 Column_678 Column_679 Column_680 Column_681 Column_682 Column_683 Column_684 Column_685 Column_686 Column_687 Column_688 Column_689 Column_690 Column_691 Column_692 Column_693 Column_694 Column_695 Column_696 Column_697 Column_698 Column_699 Column_700 Column_701 Column_702 Column_703 Column_704 Column_705 Column_706 Column_707 Column_708 Column_709 Column_710 Column_711 Column_712 Column_713 Column_714 Column_715 Column_716 Column_717 Column_718 Column_719 Column_720 Column_721 Column_722 Column_723 Column_724 Column_725 Column_726 Column_727 Column_728 Column_729 Column_730 Column_731 Column_732 Column_733 Column_734 Column_735 Column_736 Column_737 Column_738 Column_739 Column_740 Column_741 Column_742 Column_743 Column_744 Column_745 Column_746 Column_747 Column_748 Column_749 Column_750 Column_751 Column_752 Column_753 Column_754 Column_755 Column_756 Column_757 Column_758 Column_759 Column_760 Column_761 Column_762 Column_763 Column_764 Column_765 Column_766 Column_767 Column_768 Column_769 Column_770 Column_771 Column_772 Column_773 Column_774 Column_775 Column_776 Column_777 Column_778 Column_779 Column_780 Column_781 Column_782 Column_783 Column_784 Column_785 Column_786 Column_787 Column_788 Column_789 Column_790 Column_791 Column_792 Column_793 Column_794 Column_795 Column_796 Column_797 Column_798 Column_799 Column_800 Column_801 Column_802 Column_803 Column_804 Column_805 Column_806 Column_807 Column_808 Column_809 Column_810 Column_811 Column_812 Column_813 Column_814 Column_815 Column_816 Column_817 Column_818 Column_819 Column_820 Column_821 Column_822 Column_823 Column_824 Column_825 Column_826 Column_827 Column_828 Column_829 Column_830 Column_831 Column_832 Column_833 Column_834 Column_835 Column_836 Column_837 Column_838 Column_839 Column_840 Column_841 Column_842 Column_843 Column_844 Column_845 Column_846 Column_847 Column_848 Column_849 Column_850 Column_851 Column_852 Column_853 Column_854 Column_855 Column_856 Column_857 Column_858 Column_859 Column_860 Column_861 Column_862 Column_863 Column_864 Column_865 Column_866 Column_867 Column_868 Column_869 Column_870 Column_871 Column_872 Column_873 Column_874 Column_875 Column_876 Column_877 Column_878 Column_879 Column_880 Column_881 Column_882 Column_883 Column_884 Column_885 Column_886 Column_887 Column_888 Column_889 Column_890 Column_891 Column_892 Column_893 Column_894 Column_895 Column_896 Column_897 Column_898 Column_899 Column_900 Column_901 Column_902 Column_903 Column_904 Column_905 Column_906 Column_907 Column_908 Column_909 Column_910 Column_911 Column_912 Column_913 Column_914 Column_915 Column_916 Column_917 Column_918 Column_919 Column_920 Column_921 Column_922 Column_923 Column_924 Column_925 Column_926 Column_927 Column_928 Column_929 Column_930 Column_931 Column_932 Column_933 Column_934 Column_935 Column_936 Column_937 Column_938 Column_939 Column_940 Column_941 Column_942 Column_943 Column_944 Column_945 Column_946 Column_947 Column_948 Column_949 Column_950 Column_951 Column_952 Column_953 Column_954 Column_955 Column_956 Column_957 Column_958 Column_959 Column_960 Column_961 Column_962 Column_963 Column_964 Column_965 Column_966 Column_967 Column_968 Column_969 Column_970 Column_971 Column_972 Column_973 Column_974 Column_975 Column_976 Column_977 Column_978 Column_979 Column_980 Column_981 Column_982 Column_983 Column_984 Column_985 Column_986 Column_987 Column_988 Column_989 Column_990 Column_991 Column_992 Column_993 Column_994 Column_995 Column_996 Column_997 Column_998 Column_999 Column_1000 Column_1001 Column_1002 Column_1003 Column_1004 Column_1005 Column_1006 Column_1007 Column_1008 Column_1009 Column_1010 Column_1011 Column_1012 Column_1013 Column_1014 Column_1015 Column_1016 Column_1017 Column_1018 Column_1019 Column_1020 Column_1021 Column_1022 Column_1023 Column_1024 Column_1025 Column_1026 Column_1027 Column_1028 Column_1029 Column_1030 Column_1031 Column_1032 Column_1033 Column_1034 Column_1035 Column_1036 Column_1037 Column_1038 Column_1039 Column_1040 Column_1041 Column_1042 Column_1043 Column_1044 Column_1045 Column_1046 Column_1047 Column_1048 Column_1049 Column_1050 Column_1051 Column_1052 Column_1053 Column_1054 Column_1055 Column_1056 Column_1057 Column_1058 Column_1059 Column_1060 Column_1061 Column_1062 Column_1063 Column_1064 Column_1065 Column_1066 Column_1067 Column_1068 Column_1069 Column_1070 Column_1071 Column_1072 Column_1073 Column_1074 Column_1075 Column_1076 Column_1077 Column_1078 Column_1079 Column_1080 Column_1081 Column_1082 Column_1083 Column_1084 Column_1085 Column_1086 Column_1087 Column_1088 Column_1089 Column_1090 Column_1091 Column_1092 Column_1093 Column_1094 Column_1095 Column_1096 Column_1097 Column_1098 Column_1099 Column_1100 Column_1101 Column_1102 Column_1103 Column_1104 Column_1105 Column_1106 Column_1107 Column_1108 Column_1109 Column_1110 Column_1111 Column_1112 Column_1113 Column_1114 Column_1115 Column_1116 Column_1117 Column_1118 Column_1119 Column_1120 Column_1121 Column_1122 Column_1123 Column_1124 Column_1125 Column_1126 Column_1127 Column_1128 Column_1129 Column_1130 Column_1131 Column_1132 Column_1133 Column_1134 Column_1135 Column_1136 Column_1137 Column_1138 Column_1139 Column_1140 Column_1141 Column_1142 Column_1143 Column_1144 Column_1145 Column_1146 Column_1147 Column_1148 Column_1149 Column_1150 Column_1151 Column_1152 Column_1153 Column_1154 Column_1155 Column_1156 Column_1157 Column_1158 Column_1159 Column_1160 Column_1161 Column_1162 Column_1163 Column_1164 Column_1165 Column_1166 Column_1167 Column_1168 Column_1169 Column_1170 Column_1171 Column_1172 Column_1173 Column_1174 Column_1175 Column_1176 Column_1177 Column_1178 Column_1179 Column_1180 Column_1181 Column_1182 Column_1183 Column_1184 Column_1185 Column_1186 Column_1187 Column_1188 Column_1189 Column_1190 Column_1191 Column_1192 Column_1193 Column_1194 Column_1195 Column_1196 Column_1197 Column_1198 Column_1199 Column_1200 Column_1201 Column_1202 Column_1203 Column_1204 Column_1205 Column_1206 Column_1207 Column_1208 Column_1209 Column_1210 Column_1211 Column_1212 Column_1213 Column_1214 Column_1215 Column_1216 Column_1217 Column_1218 Column_1219 Column_1220 Column_1221 Column_1222 Column_1223 Column_1224 Column_1225 Column_1226 Column_1227 Column_1228 Column_1229 Column_1230 Column_1231 Column_1232 Column_1233 Column_1234 Column_1235 Column_1236 Column_1237 Column_1238 Column_1239 Column_1240 Column_1241 Column_1242 Column_1243 Column_1244 Column_1245 Column_1246 Column_1247 Column_1248 Column_1249 Column_1250 Column_1251 Column_1252 Column_1253 Column_1254 Column_1255 Column_1256 Column_1257 Column_1258 Column_1259 Column_1260 Column_1261 Column_1262 Column_1263 Column_1264 Column_1265 Column_1266 Column_1267 Column_1268 Column_1269 Column_1270 Column_1271 Column_1272 Column_1273 Column_1274 Column_1275 Column_1276 Column_1277 Column_1278 Column_1279 Column_1280 Column_1281 Column_1282 Column_1283 Column_1284 Column_1285 Column_1286 Column_1287 Column_1288 Column_1289 Column_1290 Column_1291 Column_1292 Column_1293 Column_1294 Column_1295 Column_1296 Column_1297 Column_1298 Column_1299 Column_1300 Column_1301 Column_1302 Column_1303 Column_1304 Column_1305 Column_1306 Column_1307 Column_1308 Column_1309 Column_1310 Column_1311 Column_1312 Column_1313 Column_1314 Column_1315 Column_1316 Column_1317 Column_1318 Column_1319 Column_1320 Column_1321 Column_1322 Column_1323 Column_1324 Column_1325 Column_1326 Column_1327 Column_1328 Column_1329 Column_1330 Column_1331 Column_1332 Column_1333 Column_1334 Column_1335 Column_1336 Column_1337 Column_1338 Column_1339 Column_1340 Column_1341 Column_1342 Column_1343 Column_1344 Column_1345 Column_1346 Column_1347 Column_1348 Column_1349 Column_1350 Column_1351 Column_1352 Column_1353 Column_1354 Column_1355 Column_1356 Column_1357 Column_1358 Column_1359 Column_1360 Column_1361 Column_1362 Column_1363 Column_1364 Column_1365 Column_1366 Column_1367 Column_1368 Column_1369 Column_1370 Column_1371 Column_1372 Column_1373 Column_1374 Column_1375 Column_1376 Column_1377 Column_1378 Column_1379 Column_1380 Column_1381 Column_1382 Column_1383 Column_1384 Column_1385 Column_1386 Column_1387 Column_1388 Column_1389 Column_1390 Column_1391 Column_1392 Column_1393 Column_1394 Column_1395 Column_1396 Column_1397 Column_1398 Column_1399 Column_1400 Column_1401 Column_1402 Column_1403 Column_1404 Column_1405 Column_1406 Column_1407 Column_1408 Column_1409 Column_1410 Column_1411 Column_1412 Column_1413 Column_1414 Column_1415 Column_1416 Column_1417 Column_1418 Column_1419 Column_1420 Column_1421 Column_1422 Column_1423 Column_1424 Column_1425 Column_1426 Column_1427 Column_1428 Column_1429 Column_1430 Column_1431 Column_1432 Column_1433 Column_1434 Column_1435 Column_1436 Column_1437 Column_1438 Column_1439 Column_1440 Column_1441 Column_1442 Column_1443 Column_1444 Column_1445 Column_1446 Column_1447 Column_1448 Column_1449 Column_1450 Column_1451 Column_1452 Column_1453 Column_1454 Column_1455 Column_1456 Column_1457 Column_1458 Column_1459 Column_1460 Column_1461 Column_1462 Column_1463 Column_1464 Column_1465 Column_1466 Column_1467 Column_1468 Column_1469 Column_1470 Column_1471 Column_1472 Column_1473 Column_1474 Column_1475 Column_1476 Column_1477 Column_1478 Column_1479 Column_1480 Column_1481 Column_1482 Column_1483 Column_1484 Column_1485 Column_1486 Column_1487 Column_1488 Column_1489 Column_1490 Column_1491 Column_1492 Column_1493 Column_1494 Column_1495 Column_1496 Column_1497 Column_1498 Column_1499 Column_1500 Column_1501 Column_1502 Column_1503 Column_1504 Column_1505 Column_1506 Column_1507 Column_1508 Column_1509 Column_1510 Column_1511 Column_1512 Column_1513 Column_1514 Column_1515 Column_1516 Column_1517 Column_1518 Column_1519 Column_1520 Column_1521 Column_1522 Column_1523 Column_1524 Column_1525 Column_1526 Column_1527 Column_1528 Column_1529 Column_1530 Column_1531 Column_1532 Column_1533 Column_1534 Column_1535 Column_1536 Column_1537 Column_1538 Column_1539 Column_1540 Column_1541 Column_1542 Column_1543 Column_1544 Column_1545 Column_1546 Column_1547 Column_1548 Column_1549 Column_1550 Column_1551 Column_1552 Column_1553 Column_1554 Column_1555 Column_1556 Column_1557 Column_1558 Column_1559 Column_1560 Column_1561 Column_1562 Column_1563 Column_1564 Column_1565 Column_1566 Column_1567 Column_1568 Column_1569 Column_1570 Column_1571 Column_1572 Column_1573 Column_1574 Column_1575 Column_1576 Column_1577 Column_1578 Column_1579 Column_1580 Column_1581 Column_1582 Column_1583 Column_1584 Column_1585 Column_1586 Column_1587 Column_1588 Column_1589 Column_1590 Column_1591 Column_1592 Column_1593 Column_1594 Column_1595 Column_1596 Column_1597 Column_1598 Column_1599 Column_1600 Column_1601 Column_1602 Column_1603 Column_1604 Column_1605 Column_1606 Column_1607 Column_1608 Column_1609 Column_1610 Column_1611 Column_1612 Column_1613 Column_1614 Column_1615 Column_1616 Column_1617 Column_1618 Column_1619 Column_1620 Column_1621 Column_1622 Column_1623 Column_1624 Column_1625 Column_1626 Column_1627 Column_1628 Column_1629 Column_1630 Column_1631 Column_1632 Column_1633 Column_1634 Column_1635 Column_1636 Column_1637 Column_1638 Column_1639 Column_1640 Column_1641 Column_1642 Column_1643 Column_1644 Column_1645 Column_1646 Column_1647 Column_1648 Column_1649 Column_1650 Column_1651 Column_1652 Column_1653 Column_1654 Column_1655 Column_1656 Column_1657 Column_1658 Column_1659 Column_1660 Column_1661 Column_1662 Column_1663 Column_1664 Column_1665 Column_1666 Column_1667 Column_1668 Column_1669 Column_1670 Column_1671 Column_1672 Column_1673 Column_1674 Column_1675 Column_1676 Column_1677 Column_1678 Column_1679 Column_1680 Column_1681 Column_1682 Column_1683 Column_1684 Column_1685 Column_1686 Column_1687 Column_1688 Column_1689 Column_1690 Column_1691 Column_1692 Column_1693 Column_1694 Column_1695 Column_1696 Column_1697 Column_1698 Column_1699 Column_1700 Column_1701 Column_1702 Column_1703 Column_1704 Column_1705 Column_1706 Column_1707 Column_1708 Column_1709 Column_1710
feature_infos=[0.00022463712957687676:0.99964815378189087] [8.6835243564564735e-06:0.56834501028060913] [4.4283697206992656e-06:0.66297543048858643] [0:0.37759795784950256] [0:0.38687571883201599] [0:0.36368173360824585] [0:0.37330728769302368] [0:0.59245949983596802] [0:0.44630038738250732] [0:0.33901262283325195] [0:0.58574306964874268] [4.3166485852452752e-07:0.34267064929008484] [0:0.3356894850730896] [0:0.71479147672653198] [0:0.42578125] [0:0.85661536455154419] [2.3480095023842296e-06:0.32084515690803528] [0:0.39319083094596863] [0:0.224609375] [0:0.2618815004825592] [0:0.314546138048172] [0:0.29423084855079651] [0:0.3062325119972229] [0:0.41878962516784668] [0:0.23168462514877319] [0:0.20222137868404388] [0:0.11182453483343124] [0:0.22868753969669342] [0:0.18682807683944702] [0:0.31677946448326111] [0:0.39726001024246216] [0:0.76087534427642822] [7.5953985287924297e-06:0.94313067197799683] [0:0.12916727364063263] [0:0.31760746240615845] [0:0.22973895072937012] [0:0.23521770536899567] [0:0.47229135036468506] [0:0.26676565408706665] [0:0.14459091424942017] [0:0.37556013464927673] [0:0.33359873294830322] [0:0.19317816197872162] [0:0.2036760002374649] [0:0.35287436842918396] [0:0.80061525106430054] [1.4662222156403004e-06:0.99770116806030273] [0:0.41449320316314697] [0:0.70410442352294922] [0:0.36131367087364197] [0:0.19706316292285919] [0:0.55581718683242798] [0:0.16005194187164307] [0:0.14949841797351837] [0:0.16335113346576691] [0:0.19501689076423645] [0:0.14723856747150421] [0:0.278880774974823] [0:0.14162558317184448] [0:0.22857196629047394] [0:0.64028573036193848] [0:0.22333559393882751] [0:0.2527831494808197] [0:0.307861328125] [0:0.22636041045188904] [0:0.37591463327407837] [0:0.20421206951141357] [0:0.14403535425662994] [0:0.42343991994857788] [8.0515815170656424e-07:0.25008884072303772] [0:0.63119685649871826] [0:0.44359880685806274] [0:0.95291966199874878] [0:0.37760218977928162] [0:0.87208253145217896] [0:0.12375655025243759] [0:0.31764492392539978] [4.3166485852452752e-07:0.42317238450050354] [0:0.19121870398521423] [0:0.40230908989906311] [2.8180536446598126e-06:0.19680197536945343] [0:0.13370642066001892] [0:0.16683818399906158] [0:0.14869610965251923] [0:0.3338848352432251] [0:0.47889986634254456] [0:0.52785968780517578] [0:0.27530369162559509] [0:0.39690026640892029] [0:0.8396722674369812] [1.7833394849731121e-07:0.12467122822999954] [0:0.38470262289047241] [0:0.15355335175991058] [0:0.1163511797785759] [0:0.1528780460357666] [0:0.12570434808731079] [0:0.18181997537612915] [0:0.92423880100250244] [0:0.17922468483448029] [0:0.13925197720527649] [0:0.26824972033500671] [1.4204027820596821e-06:0.14429350197315216] [0:0.46954801678657532] [0:0.13375298678874969] [0:0.22490622103214264] [0:0.13939882814884186] [0:0.22564589977264404] [0:0.28955078125] [0:0.11801771819591522] [0:0.14753727614879608] [0:0.16309100389480591] [0:0.22452302277088165] [0:0.18868133425712585] [0:0.12734915316104889] [0:0.13518756628036499] [0:0.11020974814891815] [7.566062322439393e-06:0.83540332317352295] [0:0.8699798583984375] [0:0.2156219482421875] [0:0.45883297920227051] [0:0.16667437553405762] [0:0.31924551725387573] [0:0.2751460075378418] [0:0.23581498861312866] [0:0.18855445086956024] [0:0.15859931707382202] [0:0.11147117614746094] [0:0.21697071194648743] [0:0.54682600498199463] [0:0.17738285660743713] [0:0.16615240275859833] [0:0.16793709993362427] [0:0.59796571731567383] [0:0.1322237104177475] [0:0.17406770586967468] [0:0.21704864501953125] [0:0.63460218906402588] [0:0.26730647683143616] [0:0.1657973974943161] [0:0.11966129392385483] [0:0.12705431878566742] [0:0.12976661324501038] [0:0.13365544378757477] [0:0.30678489804267883] [0:0.98131459951400757] [0:0.12657172977924347] [0:0.18722452223300934] [0:0.1266418993473053] [0:0.14816775918006897] [0:0.31264561414718628] [0:0.1450079083442688] [0:0.12692646682262421] [0:0.12322802841663361] [0:0.38859790563583374] [0:0.091759935021400452] [0:0.1427382230758667] [0:0.14682567119598389] [0:0.27887865900993347] [0:0.29853597283363342] [0:0.049325130879878998] [0:0.1402994841337204] [0:0.47903275489807129] [0:0.39892426133155823] [0:0.29633679986000061] [0:0.31148472428321838] [0:0.18903756141662598] [0:0.1382700651884079] [0:0.19712270796298981] [0:0.13064533472061157] [0:0.19691582024097443] [0:0.13153377175331116] [0:0.17721632122993469] [0:0.12948668003082275] [0:0.23161515593528748] [0:0.11768493056297302] [0:0.17616069316864014] [0:0.17241355776786804] [0:0.31758397817611694] [0:0.13071441650390625] [0:0.40653625130653381] [0:0.12743030488491058] [0:0.3160552978515625] [0:0.24081049859523773] [0:0.11389251798391342] [0:0.19827957451343536] [0:0.30324134230613708] [0:0.12777282297611237] [0:0.49443358182907104] [0:0.11779443174600601] [0:0.12169245630502701] [0:0.2366454154253006] [0:0.45098856091499329] [0:0.60619062185287476] [0:0.2686614990234375] [0:0.15974433720111847] [0:0.37052586674690247] [0:0.13117580115795135] [0:0.12968480587005615] [0:0.16102077066898346] [0:0.13056929409503937] [0:0.09356062114238739] [0:0.17250536382198334] [0:0.33654719591140747] [0:0.10397879034280777] [0:0.56805127859115601] [0:0.60644841194152832] [0:0.19983762502670288] [0:0.21748308837413788] [0:0.2796037495136261] [0:0.23842643201351166] [0:0.17555703222751617] [0:0.19240032136440277] [0:0.29211005568504333] [0:0.12763293087482452] [0:0.20480994880199432] [0:0.3404897153377533] [0:0.28009268641471863] [0:0.25275105237960815] [0:0.26778715848922729] [0:0.13366273045539856] [0:0.31319624185562134] [0:0.49562978744506836] [0:0.28357335925102234] [0:0.22466655075550079] [0:0.36871454119682312] [0:0.52715343236923218] [0:0.30854272842407227] [0:0.28742426633834839] [0:0.61466717720031738] [0:0.4117075502872467] [0:0.61415421962738037] [0:0.21794077754020691] [0:0.3541666567325592] [0:0.34444156289100647] [0:0.33467307686805725] [0:0.39473441243171692] [0:0.29864472150802612] [0:0.70405101776123047] [0:0.65477681159973145] [0:0.24562643468379974] [0:0.67149138450622559] [0:0.3138834536075592] [0:0.12582398951053619] [0:0.1247563362121582] [0:0.33041280508041382] [0:0.2204630970954895] [0:0.91145771741867065] [0:0.14158546924591064] [0:0.27062126994132996] [0:0.62425696849822998] [0:0.39862433075904846] [0:0.85348749160766602] [0:0.3445068895816803] [0:0.37328138947486877] [0:0.47636198997497559] [0:0.92449265718460083] [0:0.99896490573883057] [0:0.74712646007537842] [0:0.99770057201385498] [0:0.91303962469100952] [0:0.95235425233840942] [0:0.76624214649200439] [0:0.9234234094619751] [0:0.94543379545211792] [0:0.64751684665679932] [0:0.98128455877304077] [0:0.38993710279464722] [0:0.23636420071125031] [0:0.5952380895614624] [0:0.49537336826324463] [0:0.64243859052658081] [0:0.91115254163742065] [0:0.59637743234634399] [0:0.10359445959329605] [0:0.19873647391796112] [0:0.29988721013069153] [0:0.35071879625320435] [0:0.058402683585882187] [0:0.060389366000890732] [0:0.12283909320831299] [0:0.16591218113899231] [0:0.06850249320268631] [0:0.45509254932403564] [0:0.033192951232194901] [0:0.21758052706718445] [0:0.088224060833454132] [0:0.16541251540184021] [0:0.416451096534729] [0:0.94301468133926392] [0:0.15946075320243835] [0:0.098341695964336395] [0:0.79089683294296265] [0:0.69599294662475586] [0:0.11411292105913162] [0:0.098997399210929871] [0:0.099625058472156525] [0:0.12440826743841171] [0:0.054304387420415878] [0:0.057311136275529861] [0:0.20260074734687805] [0:0.21287180483341217] [0:0.12934640049934387] [0:0.2921893298625946] [0:0.33549231290817261] [0:0.92857140302658081] [0:0.39535284042358398] [0:0.26227515935897827] [0:0.622894287109375] [0:0.32316687703132629] [0:0.27721258997917175] [0:0.33172124624252319] [0:0.25814831256866455] [0:0.24928006529808044] [0:0.11271785199642181] [0:0.59201246500015259] [0:0.25126761198043823] [0:0.17769758403301239] [0:0.22242797911167145] [0:0.48430052399635315] [0:0.62151587009429932] [0:0.88163512945175171] [0:0.10487063229084015] [0:0.34910744428634644] [0:0.43618881702423096] [0:0.34090909361839294] [0:0.24436451494693756] [0:0.21830925345420837] [0:0.1920558363199234] [0:0.19578729569911957] [0:0.12995041906833649] [0:0.18039990961551666] [0:0.12104234844446182] [0:0.15185368061065674] [0:0.2843000590801239] [0:0.2880961000919342] [0:0.45320317149162292] [0:0.81396484375] [0:0.20488817989826202] [0:0.2749616801738739] [0:0.69069159030914307] [0:0.2636738121509552] [0:0.18886667490005493] [0:0.27840402722358704] [0:0.16682291030883789] [0:0.17970578372478485] [0:0.1787109375] [0:0.057129900902509689] [0:0.28448808193206787] [0:0.15761381387710571] [0:0.20702388882637024] [0:0.19545149803161621] [0:0.39297360181808472] [0:0.7841796875] [0:0.4622763991355896] [0:0.31750640273094177] [0:0.60959023237228394] [0:0.31751337647438049] [0:0.29345092177391052] [0:0.46532523632049561] [0:0.27697911858558655] [0:0.29396516084671021] [0:0.2699408233165741] [0:0.26003426313400269] [0:0.31750544905662537] [0:0.18779343366622925] [0:0.1687825471162796] [0:0.17312830686569214] [0:0.26769301295280457] [0:0.73486328125] [0:0.21590310335159302] [0:0.27689522504806519] [0:0.45012077689170837] [0:0.259765625] [0:0.13113535940647125] [0:0.36362183094024658] [0:0.17813809216022491] [0:0.21949180960655212] [0:0.19970703125] [0:0.083676993846893311] [0:0.19690583646297455] [0:0.19745691120624542] [0:0.18791532516479492] [0:0.15466809272766113] [0:0.37014549970626831] [0:0.68212890625] [0:0.28842774033546448] [0:0.3126627504825592] [0:0.45742416381835938] [0:0.2666015625] [0:0.2833443284034729] [0:0.40166544914245605] [0:0.18460215628147125] [0:0.14400151371955872] [0:0.1456473171710968] [0:0.18795864284038544] [0:0.18537101149559021] [0:0.14448612928390503] [0:0.22892680764198303] [0:0.15030324459075928] [0:0.28709068894386292] [0:0.6240234375] [0:0.31714606285095215] [0:0.33339855074882507] [0:0.30025115609169006] [0:0.2582818865776062] [0:0.19743341207504272] [0:0.39272418618202209] [0:0.22245199978351593] [0:0.18507786095142365] [0:0.18388286232948303] [0:0.17384739220142365] [0:0.23311789333820343] [0:0.21295166015625] [0:0.1834225058555603] [0:0.14096519351005554] [0:0.18478585779666901] [0:0.568359375] [0:0.3118024468421936] [0:0.16144987940788269] [0:0.27024489641189575] [0:0.203369140625] [0:0.22790685296058655] [0:0.28774625062942505] [0:0.14527803659439087] [0:0.169677734375] [0:0.1020197793841362] [0:0.16007763147354126] [0:0.18207073211669922] [0:0.28249892592430115] [0:0.1557953953742981] [0:0.18304821848869324] [0:0.23582428693771362] [0:0.5284842848777771] [0:0.28057861328125] [0:0.1806640625] [0:0.49096083641052246] [0:0.248046875] [0:0.40695375204086304] [0:0.17698317766189575] [0:0.13425818085670471] [0:0.12829509377479553] [0:0.12601616978645325] [0:0.10379653424024582] [0:0.1417643278837204] [0:0.15094628930091858] [0:0.2060546875] [0:0.21261775493621826] [0:0.47990396618843079] [0:0.43017578125] [0:0.22573959827423096] [0:0.22178249061107635] [0:0.33523693680763245] [0:0.2168782502412796] [0:0.34958210587501526] [0:0.25324359536170959] [0:0.1207100972533226] [0:0.26399543881416321] [0:0.10372846573591232] [0:0.15650372207164764] [0:0.12309393286705017] [0:0.16519112884998322] [0:0.26638749241828918] [0:0.16420121490955353] [0:0.38759353756904602] [0:0.38671875] [0:0.18825122714042664] [0:0.26928284764289856] [0:0.26746568083763123] [0:0.18986906111240387] [0:0.17006666958332062] [0:0.16104793548583984] [0:0.1251983642578125] [0:0.1725260466337204] [0:0.29305768013000488] [0:0.097003795206546783] [0:0.28032490611076355] [0:0.25917553901672363] [0:0.12836518883705139] [0:0.18347810208797455] [0:0.30175656080245972] [0:0.29648628830909729] [0:0.14308819174766541] [0:0.17364032566547394] [0:0.12728191912174225] [0:0.1238667219877243] [0:0.29689472913742065] [0:0.16121110320091248] [0:0.13352465629577637] [0:0.12998245656490326] [0:0.15969330072402954] [0:0.11055871099233627] [0:0.22813177108764648] [0:0.29514691233634949] [0:0.22514630854129791] [0:0.29644075036048889] [0:0.18136224150657654] [0:0.19134004414081573] [0:0.10878892242908478] [0:0.12986642122268677] [0:0.16232688724994659] [0:0.1050211563706398] [0:0.12465605139732361] [0:0.18902982771396637] [0:0.12078030407428741] [0:0.11387606710195541] [0:0.11606565117835999] [0:0.12417206168174744] [0:0.11820739507675171] [0:0.11351751536130905] [0:0.10491572320461273] [0:0.14097946882247925] [0:0.19395937025547028] [1:2734999] [5:69482.9453125] [5:104883360] [0:0.99729180335998535] [0:0.79391825199127197] [0:0.9693947434425354] [0:0.81445801258087158] [0:0.59982931613922119] [0:0.89740121364593506] [0:0.63737702369689941] [0:0.62085103988647461] [0:0.91974800825119019] [0:0.9017215371131897] [0:0.56436312198638916] [0:0.67618685960769653] [0:0.89069068431854248] [0:0.97259044647216797] [2.3698378299741307e-06:0.99978858232498169] [0:0.90096807479858398] [0:0.94696003198623657] [0:0.74160581827163696] [0:0.65816313028335571] [0:0.87520456314086914] [0:0.36355599761009216] [0:0.74971747398376465] [0:0.50386303663253784] [0:0.68847560882568359] [0:0.31002709269523621] [0:0.44713285565376282] [0:0.67076677083969116] [0:0.49170801043510437] [0:0.88542711734771729] [0:0.70154213905334473] [0:0.3808077871799469] [0:0.73364365100860596] [0:0.96396392583847046] [0:0.89347827434539795] [0:0.80066698789596558] [0:0.87594228982925415] [0:0.91753208637237549] [0:0.98479408025741577] [0:0.97549712657928467] [0:0.91708827018737793] [0:0.9977681040763855] [0:0.89356344938278198] [0:0.99345344305038452] [0:0.61651986837387085] [0:0.56088113784790039] [0:0.56982827186584473] [0:0.47662156820297241] [0:0.68194842338562012] [0:0.81265056133270264] [0:0.56170529127120972] [0:0.95500725507736206] [0:0.86802893877029419] [0:0.93781918287277222] [0:0.85522806644439697] [0:0.93828296661376953] [0:0.82803738117218018] [0:0.89463675022125244] [0:0.98115509748458862] [0:0.27620303630828857] [0:0.95664483308792114] [0:0.86039721965789795] [0:0.30483880639076233] [0:0.85061836242675781] [0:0.86093288660049438] [0:0.62867647409439087] [0:0.98249459266662598] [0:0.7469484806060791] [0:0.85394328832626343] [0:0.29943388700485229] [3.6314002045401139e-06:0.57716619968414307] [0:0.94336402416229248] [0:0.38117733597755432] [0:0.75248324871063232] [0:0.81624341011047363] [0:0.83389151096343994] [0:0.80630683898925781] [0:0.27970823645591736] [0:0.62308573722839355] [0:0.51378905773162842] [0:0.66106224060058594] [0:0.61084979772567749] [0:0.64754259586334229] [0:0.71226787567138672] [0:0.53068023920059204] [0:0.8833853006362915] [0:0.98376142978668213] [0:0.48604157567024231] [0:0.96879512071609497] [0:0.5896640419960022] [0:0.8818206787109375] [0:0.55779743194580078] [0:0.87937414646148682] [0:0.45900481939315796] [0:0.71774953603744507] [0:0.53814685344696045] [0:0.82108843326568604] [0.0041051348671317101:6.5849518775939941] [0:247805] [0:19728] [0:1684] [1:8656] [544:465536800] [512:4295151616] [0:1] [0:45764] [0:17073] [0:1] [0:1] [0:1] [0:1] [0:91449] [0:4294967296] none none none none none [-1:1] [-1:1] none none none [-1:0] none [-1:0] [-1:3] [-2:0] [-1:0] [-1:1] [0:1] none [0:1] none none none none none none none [-1:1] [-1:1] [-1:0] [0:1] [-2:1] none [-1:2] none none none none [-1:0] none none [-1:0] none none [0:1] none none none none none [0:63556] [0:52099] [0:255] [0:255] [0:58086] [0:59090] [0:5720] [0:4352] [0:4293963776] [0:1835520] [0:16715776] [1:116] [0:17] [0:19] [0:92] [0:92] [-6195200:11012096] none [-4066304:759808] [-16130048:12750848] [-2356736:3911168] [-10651648:4936704] [-38990848:56829440] [-40771584:1718784] [-4066304:1861632] none [-14917632:2652672] none [-644608:10741248] [-4007424:1730048] [-7057408:72009728] [-4269568:114518016] none [-7173120:4329984] none [-3903488:16384000] none none [-28812800:23113728] [-21523456:3493888] [-1774080:3309568] none [-1045504:25384960] [-1695744:4218880] [-65455104:124030976] none none [-8126464:3710464] [-69153792:1205760] [-1300992:5271552] none [-9862144:1566289920] none [-2369024:2166784] [-8843264:3964672] none [-43245568:3977216] [-4278255360:3294208] [-10638848:6376980] [-2093056:4294944256] none none none [-3954176:1229824] [-1460224:2040320] none [-34.375930786132812:133.25833129882812] none [-15.887214660644531:7.9994297027587891] [-35.236831665039062:10.415078163146973] [-11.688024520874023:14.242938041687012] [-22.666730880737305:43.174678802490234] [-31.413867950439453:12.031161308288574] [-35.789848327636719:7.995938777923584] [-8.7493686676025391:7.9985742568969727] none [-7.9999876022338867:131.6846923828125] none [-16.073154449462891:15.386815071105957] [-15.876965522766113:12.107828140258789] [-33.115192413330078:29.400722503662109] [-23.340456008911133:39.641921997070312] none [-15.938748359680176:8.4537076950073242] none [-641.81317138671875:8.8165311813354492] none none [-44.888790130615234:15.870301246643066] [-14.448083877563477:7.9708595275878906] [-7.9996852874755859:16.31751823425293] none [-7.9980635643005371:14.050119400024414] [-20.204029083251953:9.2839031219482422] [-7.9999675750732422:11.777627944946289] none none [-7.9999527931213379:15.356485366821289] [-26.249557495117188:10.934907913208008] [-7.9918413162231445:7.9981284141540527] none [-21.440624237060547:9.3929538726806641] none [-10.677403450012207:11.685879707336426] [-19.807489395141602:27.632175445556641] none [-9.2378969192504883:37.770309448242188] [-22.570865631103516:25.705255508422852] [-71.967842102050781:15.892786979675293] [-10.633169174194336:15.850854873657227] none none none [-10.009400367736816:13.411897659301758] none none [-6361088:562081792] none [-816840704:759807] [-5242880:12750848] [-21233664:12750848] [-88116376:4936796] [-39227704:56829280] [-41511936:1720320] [-4071289:7328868] none [-33304576:4022265] none [-1654784:10741166] [-4009984:1740800] [-12750848:72009504] [-83938584:114517736] [-12750848:400149888] [-10377096:7516160] none [-12656640:17784832] [-12652544:2015232] none [-32143308:79806464] [-21523456:3492018] [-1774009:7682588] none [-1646252:25384916] [-3214288:12656640] [-65458176:124030976] [-3031040:701974144] none [-15384576:9646080] [-1643921280:12677120] [-1300992:5271363] [-3756032:50442240] [-15413248:1566289920] none [-12656640:12750848] [-12750848:7729152] none [-44162320:12656640] [-537767936:12750848] [-10638360:6426962] [-2089184:4294944256] none none none [-3953868:1229824] [-117473792:2043904] none [-2:4] none none [-4:2] none none none [-3:0] none [0:4] [0:4] none [-1:1] none none none none [-3:4] none none [-3:1] none none none none none none none none [-1:3] none [-3:2] none none none none [-1:3] none [-2:0] [-6:1] none none [0:5] [-3:6] none [-2:2] none none none [-2:0] [0:19] none [-3:0] none [0:8] none none none [0:9] [0:5] [-8:0] none none [-19:0] none none none none none none none [0:9] [-2:9] [0:19] none none none none [0:7] none none none none none none none [0:3] [0:19] none none none none none none none [0:9] none [-3:0] [-9:0] [0:8] [-2:2] [-2:2] [-3:2] [-2:2] [-2:2] [-2:3] [-2:2] [-2:2] [-2:2] none [-2:2] [-2:2] [-2:2] [-2:2] [-2:2] [-2:2] none none none [-2:2] [-2:2] [-2:2] none none none [-2:2] [-2:2] [-2:3] [-3:2] [-2:2] [-3:2] none [-3:2] [-2:2] none [-2:2] none [-2:2] [-3:2] [-2:3] none [-2:3] [-2:2] [-2:2] none [-3:2] [-3:2] [-2:2] [-2:2] none [-2:2] [-2:3] [-2:2] [-3:1] none none [-2:2] none none [-2:2] [-2:2] [-3:2] [-3:3] [-3:2] [-2:2] [-2:2] none [-2:2] [-3:2] [-2:2] [-3:3] [-2:3] [-2:3] [-2:3] none [-3:2] none none none none [-3:2] [-2:2] [-2:2] [-2:2] [-2:2] none [-2:3] [-2:2] none [-2:2] [-2:2] [-2:3] none [-2:2] [-2:2] [-2:2] [-2:3] [-3:2] none [-2:2] [-3:2] none none [-3:2] none none [-2:2] [-2:2] [-2:2] none none none [-2:3] none [-2:3] none [-2:2] [-2:3] [-3:2] [-2:2] none [-2:3] [-2:2] none [-2:3] [-2:2] [-2:2] [-2:2] [-269:8] [-15:7] [-14:6] [-7:335] [-57:8] [-9:9] [-154:311] [-12:7] [-227:409] [-41:10] [-7:52] [-27:318] [-7:77] [-6:26] [-443:12] [-652:66] [-8:74] [-99:9] [-7:8] [-21:420] [-8:9] [-8:45] [-10:363] [-20:231] [-108:10] [-9:12] [-24:58] [-11:11] [-11:34] [-6:55] [-264:16] [-138:634] [-6:12] [-21:7] [-8:14] [-8:9] [-184:43] [-26:47] [-10:12] [-38:697] [-503:336] [-11:251] [-10:33] [-17:50] [-33:36] [-38:8] [-131:65] [-33:42] [-29:34] [-37:7] [-24:23] [-23:32] [-34:34] [-28:55] [-6:14] [-7:339] [-22:12] [-17:16] [-33:9] [-7:322] [-2317:1122] [-15:55] [-524:16] [-18:40] [-8:8] [-11:20] [-548:44] [-11:15] [-7:9] [-19:39] [-383:8] [-31:9] [-16:24] [-11:13] [-193:9] [-43:11] [-9:10] [-24:9] [-84:64] [-13:10] [-8:8] [-26:12] [-22:151] [-40:28] [-28:8] [-10:132] [-6:132] [-26:7] [-114:145] [-7:45] [-9:22] [-28:8] [-9:11] [-40:8] [-16:97] [-14:73] [-20:39] [-70:1223] [-10:8] [-1159:10] [-100:407] [-19:22] [-6:12] [-8:24] [-16:70] [-10:32] [-6:7] [-28:299] [-26:6] [-58:9] [-301:10] [-10:9] [-543:7] [-8:8] [-20:11] [-14:97] [-168:12] [-17:12] [-7:234] [-8:8] [-16:26] [-495:60] [-10:20] [-6:8] [-19:26] [-66:18] [-13:8] [-587:24] [-9:12] [-502:37] [-26:14] [-7:26] [-75:8] [-69:16] [-11:8] [-51:27] [-15:20] [-6:10] [-154:33] [-51:8] [-132:9] [-34:10] [-13:294] [-207:11] [-10:87] [-6:8] [-112:369] [-6:2529] [-132:20] [-64:10] [-13:8] [-11:1320] [-711:63] [-14:126] [-7:8] [-10:33] [-10:7] [-1254:13] [-11:26] [-51:27] [-9:8] [-40:10] [-175:87] [-123:411] [-40:130] [-3949:9] [-135:20] [-7:43] [-9:11] [-1081:6] [-39:197] [-11:7] [-7:821] [-294:134] [-5:276] [-52:8] [-7:38] [-11:9] [-68:7] [-112:7] [-84:10] [-1335:13] [-27:10] [-8:156] [-8:9] [-14:6] [-61:8] [-132:10] [-12:132] [-11:39] [-41:482] [-241:7] [-12:203] [-305:51] [-7:43] [-71:87] [-10:48] [-11:10] [-98:13] [-76:36] [-132:26] [-22:21] [-7:8] [-11:50] [-464:16] [-7:14] [-7:16] [-14:9] [-8:1250] [-10:84] [-12:10] [-9:8] [-14:11] [-176:78] [-29:11] [-10:6] [-253:8] [-11:45] [-15:10] [-18:10] [-149:1547] [-13:121] [-41:10] [-57:6] [-463:2187] [-11:6] [-10:11] [-9:32] [-10:7] [-41:14] [-8:10] [-55:7] [-177:24] [-29:75] [-47:877] [-6:714] [-92:6] [-13:30] [-7:24] [-7:129] [-10:8] [-7:477] [-596:12] [-40:8] [-8:16] [-280:122] [-982:15] [-7:329] [-29:116] [-34:7] [-11:91] [-9:7] [-67:35] [-8:302] [-11:196] [-23:50] [-7:573] [-11:9] [-41:11] [-419:13] [-17:6] [-110:6] [-534:12] [-28:12] [-19:15] [-10:7] [-10:19] [-8:32] [-8:35] [-7:9] [-21:156] [-10:26] [-11:77] [-10:1393] [-8:8] [-1200:59] [-66:34] [-104:158] [-6:183] [-9:17] [-40:132] [-168:16] [-32:6] [-1276:105] [-12:132] [-9:10] [-171:35] [-7:12] [-20:22] [-128:1072] [-36:132] [-9:252] [-53:11] [-132:9] [-67:108] [-9:7] [-98:7] [-69:20] [-12:8] [-50:521] [-14:10] [-24:465] [-9:84] [-33:175] [-10:6] [-8:66] [-13:7] [-7:95] [-21:33] [-14:12] [-8:132] [-7:23] [-12:30] [-30:45] [-8:18] [-132:59] [-9:107] [-34:7] [-226:1206] [-6:38] [-205:9] [-31:132] [-20:16] [-7:566] [-45:137] [-65:7] [-18:14] [-14:794] [-28:146] [-423:11] [-9:339] [-132:9] [-18:40] [-12:43] [-136:9] [-9:62] [-97:33] [-8:41] [-9:6] [-294:1222] [-347:623] [-99:12] [-18:12] [-42:13] [-12:7] [-8:249] [-224:10] [-29:7] [-6:45] [-8:33] [-20:7] [-7:10] [-7:12] [-510:12] [-7:8] [-33:8] [-51:6] [-37:26] [-425:12] [-8:8] [-7:11] [-70:88] [-33:8] [-7:9] [-6:12] [-1009:8] [-39:33] [-213:123] [-9:141] [-966:343] [-7:12] [-9:365] [-40:10] [-955:60] [-26:15] [-56:56] [-27:21] [-5:25] [-1179:36] [-13:132] [-27:132] [-50:196] [-118:6] [-28:23] [-6:32] [-11:120] [-177:8] [-45:31] [-67:70] [-413:7] [-53:12] [-11:79] [-1726:37] [-44:5] [-21:10] [-11:11] [-14:40] [-274:68] [-309:8] [-42:491] [-132:8] [-126:36] [-71:9] [-14:13] [-7:20] [-10:101] [-10:147] [-8:7] [-33:16] [-10:24] [-46:9] [-31:26] [-46:8] [-141:30] [-34:7] [-62:685] [-132:43] [-490:132] [-34:42] [-10:29] [-66:13] [-7:1745] [-9:34] [-1372:51] [-190:76] [-10:134] [-377:8] [-62:11] [-12:132] [-104:34] [-95:15] [-29:21] [-33:19] [-266:14] [-565:76] [-9:8] [-506:7] [-148:9] [-183:99] [-8:15] [-9:76] [-12:9] [-51:82] [-8:10] [-132:8] [-8:2637] [-156:10] [-55:12] [-741:8] [-8:7] [-1229:50] [-7:10] [-10:31] [-22:20] [-6:28] [-11:135] [-22:65] [-11:7] [-11:10] [-9:6] [-42:10] [-11:8] [-9:35] [-10:66] [-8:13] [-7:6] [-7:7] [-45:345] [-10:8] [-52:57] [-23:8] [-62:37] [-24:9] [-151:13] [-644:61] [-8:28] [-27:75] [-10:794] [-33:20] [-12:6] [-7:10] [-96:47] [-14:8] [-51:9] [-57:216] [-10:47] [-28:8] [-29:11] [-6:110] [-8:12] [-12:78] [-11:10] [-15:12] [-14:64] [-6:8] [-18:82] [-15:164] [-21:11] [-13:687] [-12:610] [-28:8] [-12:518] [-334:12] [-32:12] [-9:11] [-25:33] [-263:17] [-92:6] [-486:47] [-40:336] [-18:13] [-18:6] [-26:78] [-22:26] [-32:32] [-84:75] [-19:20] [-70:27] [-81:19] [-94:20] [-89:217] [-22:23] [-75:20] [-111:23] [-68:71] [-38:24] [-21:67] [-34:25] [-97:20] [-30:46] [-89:43] [-21:113] [-22:129] [-32:77] [-82:42] [-102:34] [-81:44] [-86:118] [-57:21] [-28:39] [-46:96] [-46:25] [-28:30] [-20:99] [-90:19] [-42:144] [-185:24] [-29:41] [-67:19] [-27:23] [-29:54] [-26:58] [-52:19] [-108:86] [-30:25] [-43:20] [-82:145] [-195:36] [-74:27] [-68:17] [-155:20] [-1985:22] [-30:34] [-23:70] [-31:31] [-40:34] [-24:24] [-177:111] [-26:28] [-22:57] [-29:38] [-25:283] [-36:26] [-31:97] [-117:23] [-29:35] [-98:25] [-146:27] [-56:32] [-26:61] [-35:33] [-31:29] [-28:27] [-114:72] [-34:22] [-36:35] [-27:37] [-27:28] [-24:76] [-25:27] [-21:30] [-60:31] [-56:22] [-39:41] [-36:138] [-24:31] [-22:36] [-34:139] [-117:85] [-150:35] [-88:31] [-20:26] [-216:31] [-32:105] [-29:25] [-110:50] [-35:47] [-20:23] [-31:90] [-133:24] [-24:33] [-201:24] [-35:28] [-29:122] [-86:83] [-30:24] [-144:31] [-69:23] [-31:80] [-35:23] [-45:28] [-77:30] [-115:33] [-29:23] [-26:97] [-94:20] [-129:40] [-23:35] [-29:31] [-31:24] [-60:34] [-64:23] [-127:38] [-28:127] [-52:91] [-181:24] [-20:72] [-27:43] [-28:26] [-28:22]
tree_sizes=5469 5468 5469 5461 5479 5479 5503 5457 5503 5490 5467 5493 5507 5488 5498 5511 5494 5482 5492 5507 5493 5481 5478 5526 5502 5507 5504 5498 5527 5495 5516 5518 5519 5485 5521 5493 5487 5514 5475 5517 5531 5527 5552 5523 5502 5509 5498 5502 5507 5481 5503 5512 5499 5519 5509 5512 5515 5527 5517 5519 5522 5517 5537 5519 5523 5537 5538 5543 5507 5522 5534 5517 5514 5527 5501 5530 5538 5521 5525 5524 5531 5536 5564 5548 5492 5528 5526 5535 5533 5554 5525 5533 5540 5537 5551 5497 5524 5519 5504 5544 5519 5522 5535 5547 5533 5526 5498 5512 5546 5538 5537 5546 5545 5535 5535 5521 5524 5547 5544 5515 5524 5532 5548 5550 5531 5552 5567 5589 5546 5589 5543 5506 5544 5535 5532 5523 5565 5541 5561 5525 5539 5546 5540 5572 5573 5552 5554 5525 5567 5578 5584 5590 5550 5557 5525 5602 5512 5539 5566 5548 5583 5591 5572 5543 5551 5533 5555 5551 5577 5555 5522 5576 5559 5543 5542 5570 5563 5569 5553 5562 5498 5536 5567 5525 5556 5584 5529 5599 5544 5560 5551 5556 5548 5557 5566 5558 5564 5570 5529 5561 5529 5554 5557 5578 5562 5546 5559 5561 5565 5565 5575 5559 5584 5592 5554 5554 5574 5548 5532 5554 5539 5582 5549 5552 5533 5556 5567 5589 5551 5545 5556 5575 5567 5562 5571 5567 5545 5548 5591 5562 5571 5560 5548 5579 5581 5530 5553 5562 5569 5543 5529 5581 5554 5551 5580 5543 5564 5520 5560 5575 5555 5595 5577 5581 5554 5581 5590 5634 5560 5535 5561 5576 5579 5561 5581 5577 5574 5631 5566 5563 5583 5567 5556 5577 5564 5575 5578 5573 5568 5569 5561 5562 5551 5609 5570 5552 5601 5620 5595 5566 5564 5580 5571 5585 5564 5554 5590 5557 5550 5584 5579 5648 5540 5563 5541 5594 5564 5588 5575 5581 5580 5607 5546 5596 5583 5551 5579 5524 5591 5580 5570 5588 5573 5562 5606 5552 5564 5597 5598 5584 5602 5540 5558 5569 5548 5583 5562 5574 5548 5629 5569 5556 5606 5573 5562 5559 5547 5573 5598 5575 5555 5553 5558 5668 5581 5569 5569 5593 5579 5584 5553 5588 5554 5572 5555 5548 5549 5595 5561 5595 5583 5563 5577 5548 5578 5607 5594 5593 5591 5554 5522 5583 5571 5582 5577 5567 5574 5583 5547 5591

Tree=0
num_leaves=64
num_cat=0
split_feature=637 618 620 2 1315 90 1159 612 578 521 64 1060 596 389 511 1407 654 1519 529 1123 497 1240 256 473 626 491 509 586 91 509 75 512 386 1062 159 626 1561 204 589 344 76 385 496 1561 31 103 403 618 204 692 554 55 191 1567 618 389 1178 725 22 531 1105 736 214
split_gain=247161 61307.2 28789.4 11699.6 8934.39 7499.25 7390.4 5919.45 5326.13 5300.17 5271.16 4360.59 3662.79 3526.39 3388.17 3381.01 3349.34 3025.45 2971.18 2443.35 2369.69 2287.23 2276.87 2079.61 2051.22 1689.18 1683.16 1569.39 1543.28 1451.48 1416.24 1401.89 1315.1 1204.4 1199.33 1188.22 1180.17 1108.45 1781.58 1070.88 1050.35 1035.66 935.626 904.594 764.104 698.01 671.813 648.694 618.128 611.782 907.006 619.672 478.019 351.002 322.745 343.76 310.255 430.764 264.337 254.929 247.032 242.468 227.719
threshold=-1.0000000180025095e-35 1.0000000180025095e-35 114.50000000000001 0.0038897336926311259 -1.0000000180025095e-35 0.0005769902199972422 -1.0000000180025095e-35 2.5000000000000004 0.0094037991948425787 0.0027856879169121389 0.0046782512217760095 1.0000000180025095e-35 0.00097574858227744709 9.9045690149068846e-05 0.00073111202800646435 1.5000000000000002 1.0000000180025095e-35 -1.0000000180025095e-35 0.024270695634186271 1.0000000180025095e-35 2.5873378035612408e-05 1.0000000180025095e-35 0.031043546274304393 0.0048888730816543111 1162423808.0000002 0.00046604356612078851 0.061694694682955749 0.010328469797968866 0.0032811724813655023 0.0033890960039570932 0.00089520146138966094 3301.5000000000005 0.0008451308822259308 -1.0000000180025095e-35 0.0011581503786146643 1247529152.0000002 -1.4999999999999998 0.0041694089304655799 0.0059967353008687505 1.2328604952926982e-05 0.00063370275893248628 0.00028167785785626625 1.0000000180025095e-35 -1.0000000180025095e-35 0.0035109922755509619 0.0038220657734200363 0.00097673776326701067 1.0000000180025095e-35 0.0034186859847977762 1.0000000180025095e-35 0.0071372112724930057 0.00048829367733560513 0.0015229365089908244 1.0000000180025095e-35 1.0000000180025095e-35 0.00059617302031256269 1.0000000180025095e-35 -12647.999999999998 2.0229867004673e-05 0.0087402691133320349 -1.0000000180025095e-35 23054.000000000004 0.0020902288379147653
decision_type=2 2 2 2 2 2 2 2 2 2 2 2 2 2 2 2 2 2 2 2 2 2 2 2 2 2 2 2 2 2 2 2 2 2 2 2 2 2 2 2 2 2 2 2 2 2 2 2 2 2 2 2 2 2 2 2 2 2 2 2 2 2 2
left_child=9 2 4 8 28 10 14 12 30 17 40 -11 27 59 -5 19 21 18 29 23 41 26 -9 45 -8 -10 33 32 -2 36 -3 61 -4 44 -27 -17 -1 38 -26 -21 -6 -12 -42 -25 -7 46 60 -15 -32 50 -35 -51 -48 -29 55 -38 -53 -58 -19 -13 -14 -16 -60
right_child=1 3 7 6 5 16 24 22 25 11 20 13 15 47 31 35 -18 58 -20 39 -22 -23 -24 43 37 34 -28 53 -30 -31 48 -33 -34 49 -36 -37 54 -39 -40 -41 42 -43 -44 -45 -46 -47 52 -49 -50 51 -52 56 -54 -55 -56 -57 57 -59 62 -61 -62 -63 -64
leaf_value=-0.012 0.020275967803756231 -0.0082834331337325352 0.050665368386887379 -0.056572379367720471 0.093648334624322233 0.081630824372759869 0.00011607661056297156 -0.079303837282449163 -0.077100336053768606 -0.09746376811594204 0.0036821705426356593 0.093114890087100791 0.05280898876404494 -0.014467184191954835 0.083746678476527905 -0.082939362795477908 -0.013639344262295084 -0.064173913043478262 0.05624375624375625 0.024788029925187034 0.06706586826347305 -0.0094288304623753403 0.025462089777442479 0.034899845916795069 -0.078338934229476728 -0.04265734265734266 0.0016000000000000001 -0.04307116104868914 -0.08154023651571965 0.010700000000000001 0.093293189368770776 -0.024165029469548134 -0.053280318091451298 0.0091358024691358033 0.06491391344811541 0.016956737941322724 -0.040889413616686347 -0.09185069305489868 0.0030319735391400224 -0.07845084409136048 -0.0079491255961844209 -0.080363492690636112 0.080464301357862478 -0.052815262912982788 -0.0030392156862745099 0.014937580714593199 0.0067021748779405241 -0.083345950037850114 0.032611903590752583 0.043268797838811351 0.089584706657877392 0.09711264386706453 0.065995917177019539 -0.093031875463306157 -0.097591865858009275 -0.085982973668580487 0.09579770339604203 0.04430003713330858 -0.099054977900728161 0.046467749012724879 0.086770785484611868 0.042094861660079058 -0.079543261498874251
leaf_count=2375 2609 2004 3081 4808 7746 2232 3446 9538 4166 6624 2064 2411 2492 2834 4516 2919 3050 2300 2002 2005 2004 2206 2651 2596 10415 2002 2000 2937 3467 2000 9632 2036 2012 2025 2149 2011 2541 27487 3628 2014 2516 5062 2283 2149 2040 2323 2253 2642 2033 2221 4551 194711 3429 2698 11212 5051 4093 2693 157245 2279 15239 2024 6218
internal_value=0 0.934131 1.33542 -0.623752 1.63911 1.69889 -1.09219 0.119749 0.619667 -1.76393 0.576055 -0.686599 0.423542 0.13614 0.212493 0.705453 1.8086 -1.85866 -1.21274 0.926841 -0.580066 1.83762 -1.13036 1.12011 -1.48043 -0.642299 1.85826 -0.612603 -0.756419 -1.41464 1.38752 0.965951 0.192028 1.87528 0.26066 -0.843813 -1.56844 -1.60347 -1.14634 -0.53894 1.41746 -1.1204 0.682225 -0.0965227 0.82397 1.34442 1.44817 -0.953981 1.65435 1.89664 1.29623 1.91602 0.849701 -1.33984 -1.73623 -1.41781 1.9276 1.50722 -1.95678 1.40896 1.63995 1.41713 -1.96626
internal_count=600000 392266 311920 80346 249573 243497 58360 62347 21986 207734 21675 16790 50158 10166 13384 39430 221822 190944 25181 34500 9130 218772 12189 30481 44976 8317 216566 10728 6076 23179 13669 8576 5093 214566 4151 4930 21179 41530 14043 4019 12545 7126 4799 4745 4272 25736 23413 5476 11665 210294 6576 203718 5682 5635 18804 7592 201497 6786 165763 4690 17731 6540 163463
shrinkage=0.05


Tree=1
num_leaves=64
num_cat=0
split_feature=637 618 620 2 1315 169 1159 612 578 521 570 1060 596 389 511 1407 1519 82 1123 655 256 509 473 626 825 491 586 95 251 90 515 512 574 685 352 386 159 626 204 589 363 1146 757 1561 508 442 1105 213 287 504 617 94 1394 825 32 692 29 1426 771 80 97 104 214
split_gain=223547 55442.9 26062.5 10575.4 8084.25 6917.41 6683.65 5349.09 4814.69 4801.61 4613.85 3946.44 3309.57 3186.61 3063.52 3055.07 2747 2764.41 2208.09 2184.5 2062.96 2032.63 1880.6 1876.35 1617.76 1527.07 1418.5 1411.73 1332.69 1323.1 1284.09 1273.35 1265.29 1201.37 1647.5 1191.58 1083.39 1074.71 1066.19 1467.24 1001.08 973.479 1555.17 816.871 665.156 655.1 648.73 541.426 463.413 457.096 428.785 419.314 361.365 468.547 346.862 341.973 433.683 281.627 369.413 256.273 243.836 231.752 220.033
threshold=-1.0000000180025095e-35 1.0000000180025095e-35 114.50000000000001 0.0038897336926311259 -1.0000000180025095e-35 0.00024416230735369032 -1.0000000180025095e-35 2.5000000000000004 0.0094037991948425787 0.0027856879169121389 0.010640517808496954 1.0000000180025095e-35 0.00097574858227744709 8.4315946878632544e-05 0.00066468582372181128 1.5000000000000002 -1.0000000180025095e-35 0.00065106290276162337 1.0000000180025095e-35 -1.0000000180025095e-35 0.016027385368943218 0.061694694682955749 0.0048888730816543111 1094191680.0000002 -18.999999999999996 0.00046604356612078851 0.010328469797968866 0.0034179826034232978 0.0025235014036297802 0.00036626380460802471 0.013134609442204239 3301.5000000000005 0.0010494320304133 766208.00000000012 0.0013784468756057324 0.00078923761611804377 0.0011581503786146643 1247529152.0000002 0.0041694089304655799 0.0056876316666603097 3.2266621929011314e-05 -1.0000000180025095e-35 3.3778413534164433 -1.0000000180025095e-35 0.0021326642017811541 0.0012411736533977093 -1.0000000180025095e-35 0.00018696828192332762 4.1278349272033674e-06 0.0060058103408664474 397392.00000000006 0.0038798489840701227 -1.0000000180025095e-35 -42584.999999999993 0.0052558809984475383 1.0000000180025095e-35 0.0031735565280541782 -1.0000000180025095e-35 -7.7801625728607169 0.020678841508924965 0.0048662174958735713 0.0043121599592268476 0.00092956016305834066
decision_type=2 2 2 2 2 2 2 2 2 2 2 2 2 2 2 2 2 2 2 2 2 2 2 2 2 2 2 2 2 2 2 2 2 2 2 2 2 2 2 2 2 2 2 2 2 2 2 2 2 2 2 2 2 2 2 2 2 2 2 2 2 2 2
left_child=9 2 4 8 27 10 14 12 30 16 32 -11 26 -13 62 18 17 -1 22 21 -9 29 46 -8 -21 -10 35 -2 44 -7 -3 -16 47 41 -35 -4 -27 -17 39 60 -20 42 -31 -24 -19 -15 50 -6 51 -32 -14 -48 53 -43 -28 56 -54 58 -57 -18 -25 -40 -5
right_child=1 3 7 6 5 19 23 20 25 11 -12 13 15 45 31 37 59 28 40 24 -22 -23 43 38 -26 36 54 -29 -30 33 49 -33 -34 34 -36 -37 -38 -39 61 -41 -42 52 -44 -45 -46 -47 48 -49 -50 -51 -52 -53 55 -55 -56 57 -58 -59 -60 -61 -62 -63 -64
leaf_value=0.053094883835899435 0.019934003988734857 0.08728415716295046 0.049689048886387796 -0.074092782015554248 -0.071470591655992108 0.0071151463669237225 0.0084988011695407619 -0.081895271066167494 -0.073356136458729362 -0.092814496695234075 0.08238872162915456 0.068061120410356057 -0.0023249066279619908 -0.013407380943325357 0.066837493660979616 -0.078930353513340892 -0.093610936318260785 -0.08316155955310521 0.024326774319481662 -0.038488714946000147 0.0064732277413924889 -0.0083406456520808744 0.033165128722204264 -0.044904853533358345 0.073628114273523823 -0.040543238400573701 -0.030451079288408067 -0.077571823048628752 -0.0065470682716321088 0.094812398386583327 -0.01363690661617608 -0.023293217037793079 0.0298320907495538 0.084506373903801293 -0.0048897754599902393 -0.048592469488650557 0.061734348499031477 0.01611007951813135 -0.091356562496252167 -0.0019912537581964459 -0.075532614216832397 0.093173147429854331 -0.017817892596401205 -0.05021010822018554 -0.022367518892062312 -0.082418252463363914 0.081952611021954891 -0.0092065172558329373 0.028940407617365049 0.050902905254381126 0.061357951469606625 0.038446169160532055 0.030058404497827027 0.034301868228829059 -0.082248315393662827 0.041132825444697194 0.090149042563870047 0.093130984739380654 0.090964471978831202 -0.057676304658945146 -0.081511655876378597 -0.066796389680016069 -0.030625198148050304
leaf_count=2069 2591 9233 2991 2619 4565 2020 2822 8311 4166 6624 6261 4604 2208 3057 6609 2919 163750 18014 2008 2427 3878 2225 2596 2346 2745 2002 2015 3485 3097 2860 2001 2056 2619 5801 3206 2102 2149 2011 23049 3974 2011 2895 2152 2149 2001 2505 16600 2015 2337 2435 2031 2560 2014 2545 3620 2440 2984 187894 3829 2013 8163 4622 2100
internal_value=0 0.889069 1.27111 -0.593452 1.56047 1.61742 -1.03916 0.113894 0.589535 -1.67955 0.32184 -0.653343 0.402822 0.129481 0.202075 0.670966 -1.76984 -1.15392 0.881544 1.70532 -1.07524 1.73519 1.06541 -1.40877 0.419759 -0.610886 -0.582566 -0.719336 -1.35241 1.75441 1.32027 0.908644 -0.579806 1.76933 1.05347 0.18255 0.247825 -0.80249 -1.51465 -1.07483 -0.512447 1.8001 0.928479 -0.0917444 -1.54154 -0.889572 1.27894 -1.048 1.4201 0.435578 0.563717 1.52275 1.82146 1.31242 -1.27451 1.83537 1.3185 1.84869 1.4313 -1.86349 -1.46679 -1.74508 -1.09499
internal_count=600000 392266 311920 80346 249573 243497 58360 62347 21986 207734 15460 16790 50158 10166 13384 39430 190944 25181 34500 228037 12189 222865 30481 44976 5172 8317 10728 6076 23112 220640 13669 8665 9199 218620 9007 5093 4151 4930 42154 14483 4019 209613 5012 4745 20015 5562 25736 6580 21497 4436 4239 19160 204601 5440 5635 199161 4998 194163 6269 165763 10509 27671 4719
shrinkage=0.05


Tree=2
num_leaves=64
num_cat=0
split_feature=637 618 620 2 1315 169 1159 612 508 578 578 1323 532 1060 55 507 446 128 655 534 256 509 618 682 242 626 511 1 825 491 91 105 75 90 76 1062 159 204 589 1407 1146 757 161 450 692 374 396 355 204 456 377 1261 577 447 527 405 736 41 570 1303 165 328 43
split_gain=202973 50319 23724.3 9586.52 7349.25 6309.36 6067.79 4844.08 4444.8 4363.8 4361.32 3248.88 6647.64 3172.61 3089.86 2775.45 2558.69 2053.57 1996.9 1987.37 1913.71 1855.45 1792.13 2231.78 1745.3 1715.14 1699.67 1510.49 1464.53 1384.81 1310.36 1249 1218.47 1214.34 1208.73 1124.89 980.307 889.56 1655.83 870.423 723.178 1215.08 721.197 718.508 648.037 805.1 591.306 576.471 548.435 517.828 481.041 477.587 446.145 389.684 385.327 373.774 288.108 271.622 260.799 227.851 248.948 224.746 222.823
threshold=-1.0000000180025095e-35 1.0000000180025095e-35 114.50000000000001 0.0038897336926311259 -1.0000000180025095e-35 0.00024416230735369032 -1.0000000180025095e-35 2.5000000000000004 0.016469397582113746 0.0094037991948425787 0.016621400602161888 1.0000000180025095e-35 0.00051748193800449382 1.0000000180025095e-35 0.00078127457527443777 0.00061004413873888563 4.977251046511811e-05 0.0049957979936152705 -1.0000000180025095e-35 0.0051859801169484862 0.031043546274304393 0.061694694682955749 1.0000000180025095e-35 1.0000000180025095e-35 0.0010931210708804431 1220115456.0000002 0.0037158937193453316 0.0095475600101053732 -18.999999999999996 0.00046604356612078851 0.0033903567818924789 0.0037354191299527888 0.00089520146138966094 0.00048830581363290559 0.0034153395099565391 -1.0000000180025095e-35 0.0011581503786146643 0.0040527987293899068 0.0064219136256724605 1.5000000000000002 -1.0000000180025095e-35 2.3004173040390019 0.0032492441823706035 0.0023434195900335912 1.0000000180025095e-35 0.0034182787640020256 0.00034761965798679745 4.0798062400426722e-05 0.0034186859847977762 0.0026821735082194213 9.1038502432638793e-05 1.0000000180025095e-35 0.0093066529370844382 0.024084219709038738 0.0076939968857914218 0.0017037048237398269 28416.000000000004 1.0000000180025095e-35 0.010811931453645231 -1.0000000180025095e-35 0.0010923404479399326 0.00031991279684007173 0.0017782542854547503
decision_type=2 2 2 2 2 2 2 2 2 2 2 2 2 2 2 2 2 2 2 2 2 2 2 2 2 2 2 2 2 2 2 2 2 2 2 2 2 2 2 2 2 2 2 2 2 2 2 2 2 2 2 2 2 2 2 2 2 2 2 2 2 2 2
left_child=8 2 4 9 30 10 15 14 11 32 19 57 -13 -10 27 -5 -16 24 21 -6 62 33 23 51 55 26 -8 -4 -20 -11 -2 47 -3 46 56 42 -31 38 -27 43 41 -37 -35 52 45 -42 -7 -19 -34 -33 -12 -14 -26 61 -15 -18 -17 -1 -21 -39 -61 -46 -9
right_child=1 3 7 6 5 18 25 20 13 29 50 12 22 54 16 34 17 31 28 58 -22 -23 -24 -25 39 37 -28 -29 -30 36 -32 49 48 35 -36 40 -38 59 -40 -41 44 -43 -44 -45 53 -47 -48 -49 -50 -51 -52 -53 -54 -55 -56 -57 -58 -59 -60 60 -62 -63 -64
leaf_value=-0.056170240985026224 0.017681750347384929 -0.0090489139810085075 0.019056182745159213 -0.052366889367828788 -0.022261607430579842 0.066465610291680619 -0.072579947647518211 -0.08421203167118875 -0.086122225968863431 -0.069986254148267521 -0.021871454268651815 0.080070013684178154 -0.078815228320352537 0.010228904308016843 -0.055700353394821794 0.077764439534333304 0.018966756321980527 0.071598140153927958 -0.036585935661604063 0.047639665541526113 0.023871545708688522 -0.0079237370454843751 -0.086729949046383967 0.034875253575528835 0.075768463469049196 -0.071906443129978043 0.055158657195349882 -0.067263989263345231 0.070190928572468364 -0.038566377397208029 -0.07592037839919219 -0.0082850161476488316 0.085440298870673517 0.072306578693937917 -0.024070351028737211 0.090679738574554747 0.058825206812840369 -0.089668690779311971 0.011250650490403379 0.0016210532669193184 0.081058093990662619 -0.011622121397556577 -0.0091854111190138102 0.010068487404412591 0.088903199616061912 0.002798324895254117 -0.003072829320125179 -0.0040598753995631596 0.028191336230985832 -0.07840237883891904 -0.084746280611321168 -0.03229739998306095 0.026660748664307867 0.051800507516419229 0.066790913633270096 -0.041140534949140606 0.0323770372988176 -0.090080380621603756 0.089592346143799489 -0.080010958103325314 -0.039223272290273774 0.06380028467667738 -0.052607916019732963
leaf_count=2416 2697 2004 3242 4700 2630 2696 2008 5927 3161 4166 2002 3246 6583 2110 3183 4625 2132 2002 2427 2013 2651 2225 22807 3051 19302 10227 2170 5458 2745 2002 3379 2051 9632 2371 2045 2776 2149 19594 3132 2355 3827 2011 2016 2133 194047 2013 2251 2040 2033 2183 3122 3349 2056 2969 2827 2021 2014 158184 5693 5809 2036 3663 3611
internal_value=0 0.848912 1.21397 -0.566132 1.49113 1.54568 -0.991438 0.108528 -1.60567 0.562213 0.306688 -1.66493 -1.14578 -0.14927 0.383833 0.192499 0.61176 0.755403 1.63 1.05723 -1.02502 1.6587 -1.39542 -0.800809 0.999325 -1.3447 -0.123834 -0.70162 0.399655 -0.58223 -0.685098 -0.128141 1.25949 1.67718 0.863922 1.6998 0.23597 -1.47043 -1.04651 1.19329 1.72075 0.950078 0.695656 1.30987 1.73867 1.08048 0.695856 0.66824 1.50842 -0.888928 -1.20335 -1.26229 1.42076 1.7579 0.852267 -0.205692 1.27934 -1.79139 1.57181 -1.67756 -1.38846 1.76876 -1.44494
internal_count=600000 392266 311920 80346 249573 243497 58360 62347 207734 21986 15460 199636 39036 8098 50158 13384 41458 38275 228037 10336 12189 222865 35790 12983 29999 44976 4178 8700 5172 8317 6076 8276 13669 220640 8684 215693 4151 40798 13359 25846 211306 4787 4387 23491 206519 5840 4947 4042 11665 4234 5124 9932 21358 200679 4937 4153 6639 160600 7706 27439 7845 197710 9538
shrinkage=0.05


Tree=3
num_leaves=64
num_cat=0
split_feature=637 618 620 2 1315 90 1159 1164 64 509 578 328 1323 532 1060 654 511 612 825 497 1240 1407 457 618 682 626 405 491 509 784 95 515 1365 512 94 1062 681 589 541 159 76 786 1519 31 422 692 554 55 1261 504 513 403 191 527 616 1178 725 41 677 620 623 707 214
split_gain=184908 45803.8 21721.8 8711.93 6708.27 5825.93 5528.75 4411.23 4234.75 4079.82 3965.75 3114.96 2978.24 6057.34 2941.93 2570.4 2521.23 2486.51 2324.82 1913.94 1907.71 1757.87 1717.62 1637.69 2033.59 1576.13 1429.29 1259.17 1257.29 1212.36 1203.38 1127.46 1106.54 1082.62 1004.9 968.74 935.241 1734.02 889.699 888.308 840.181 786.484 780.018 632.232 492.884 477.212 767.104 517.853 431.187 391.39 390.581 385.838 416.738 362.699 282.203 271.411 374.422 253.516 223.6 212.734 204.873 261.265 204.41
threshold=-1.0000000180025095e-35 1.0000000180025095e-35 114.50000000000001 0.0038897336926311259 -1.0000000180025095e-35 0.0005769902199972422 -1.0000000180025095e-35 -1.0000000180025095e-35 0.0046782512217760095 0.015293444041162731 0.0094037991948425787 5.6738244893495e-05 1.0000000180025095e-35 0.00051748193800449382 1.0000000180025095e-35 1.0000000180025095e-35 0.00073111202800646435 3.5000000000000004 -2034.4999999999998 2.5873378035612408e-05 1.0000000180025095e-35 1.5000000000000002 0.00099025387316942237 1.0000000180025095e-35 1.0000000180025095e-35 1094191680.0000002 0.0017037048237398269 0.00046604356612078851 0.061694694682955749 -6.543670415878295 0.0035087427822873001 0.013134609442204239 1.0000000180025095e-35 3301.5000000000005 0.0038543591508641843 -1.0000000180025095e-35 5.5000000000000009 0.0070040065329521903 0.003729113377630711 0.0011581503786146643 0.00063370275893248628 4.7032616138458261 -1.4999999999999998 0.0035109922755509619 0.0027147466316819195 1.0000000180025095e-35 0.0071372112724930057 0.0004790857201442123 1.0000000180025095e-35 0.0060058103408664474 12.488973140716555 0.0009440214780624957 0.0016920391353778543 0.0076939968857914218 684267.50000000012 1.0000000180025095e-35 -12647.999999999998 1.0000000180025095e-35 1.5000000000000002 122.50000000000001 1.0000000180025095e-35 15408.000000000002 0.00092956016305834066
decision_type=2 2 2 2 2 2 2 2 2 2 2 2 2 2 2 2 2 2 2 2 2 2 2 2 2 2 2 2 2 2 2 2 2 2 2 2 2 2 2 2 2 2 2 2 2 2 2 2 2 2 2 2 2 2 2 2 2 2 2 2 2 2 2
left_child=9 2 4 10 30 8 16 32 40 12 31 17 57 -14 -11 20 62 21 29 38 28 22 34 24 48 -8 44 -12 35 -13 -2 -3 54 59 51 43 37 50 -10 -29 -6 -42 -36 -7 -24 46 -37 -47 -15 -33 -27 -9 -53 -16 -4 60 -57 -1 -31 -18 -49 -62 -5
right_child=1 3 7 6 5 15 25 11 19 14 27 18 13 23 53 -17 33 -19 -20 -21 -22 -23 26 -25 -26 36 -28 39 -30 58 -32 49 -34 -35 42 45 -38 -39 -40 -41 41 -43 -44 -45 -46 47 -48 55 -50 -51 -52 52 -54 -55 -56 56 -58 -59 -60 -61 61 -63 -64
leaf_value=-0.053660604942616222 0.017565457907900327 0.08036062036189548 -0.039598972146374589 -0.067626596905439262 0.08297805796896747 0.07180237579209775 0.0080039569930159416 0.077002426503366805 -0.074063200911111057 -0.08265147667034109 -0.066929186819527392 0.0057456258507324019 0.076529381086024667 -0.075638752448522639 0.0094578806672485083 -0.012284890971247416 0.075397357524170525 -0.05513956888349978 0.051491380837007009 0.059255090701087865 -0.012392227116454421 -0.049153671463032324 0.06354582916188177 -0.083268887004260134 0.033046868601709738 -0.03272637949482643 -0.060037348292721726 -0.036712253357542253 0.0023348051310407712 -0.050644871417755699 -0.072389384684450206 -0.014000586383419314 0.0046600405560202288 -0.021819117102116609 0.057592393270855816 0.0051456980851089067 -0.085480859841527534 0.0071134065216503575 0.0046029064440579592 0.056146849708619197 -0.0049432149790911775 0.077404292878050673 -0.022611319587214157 -0.0054644643121299491 -0.00099259606737572056 0.033513017243369518 0.079350334212872964 0.085540427352296888 -0.031258404085615137 0.045839958694733125 -0.073739253782079392 0.0098888955820348734 0.072271762372847423 0.063677066198837937 -0.078907741709838594 0.08383480803459141 0.03555461474337672 -0.086511867814320312 -0.085760593481807965 0.037630656892989986 0.036751656618551683 0.086429205383192487 -0.026032116830748964
leaf_count=2416 2667 9233 2588 2655 7746 2232 2822 15408 5115 3279 4166 3212 3246 6569 2206 3050 4192 2956 3255 2004 2206 2043 2702 22769 3043 2748 2370 2002 2000 3654 3409 2001 2806 2036 2516 2025 19489 3719 2011 2149 2788 2011 2361 2040 2128 2042 4551 190553 3332 2435 16198 2021 2308 2832 6366 4099 2697 158042 3653 2348 2006 2321 2153
internal_value=0 0.812777 1.16266 -0.541351 1.4296 1.48208 -0.948186 0.103499 0.488118 -1.54044 0.537411 0.360943 -1.59841 -1.09918 -0.160797 1.58001 0.183625 0.665852 -0.453129 -0.550067 1.60585 0.819842 0.935936 -1.33899 -0.768946 -1.28708 0.0743442 -0.555915 1.62501 -0.911579 -0.653579 1.20466 -1.00445 0.836359 1.18859 1.63999 -1.38526 -1.1077 -1.03629 0.224966 1.24799 0.589359 0.374185 0.693967 0.700863 1.65943 1.12653 1.67678 -1.21272 0.375008 -1.35551 1.39083 0.8618 0.797643 -1.35017 1.68707 1.29135 -1.72028 -1.36374 1.2362 1.70093 1.26704 -0.979291
internal_count=600000 392266 311920 80346 249573 243497 58360 62347 21675 207734 21986 50587 199417 38959 8317 221822 13384 36813 13774 9130 218772 33857 31814 35713 12944 44976 7200 8317 216566 10519 6076 13669 11760 8576 24614 214566 42154 22665 7126 4151 12545 4799 4877 4272 4830 210294 6576 203718 9901 4436 18946 19737 4329 5038 8954 201676 6796 160458 7307 6540 194880 4327 4808
shrinkage=0.05


Tree=4
num_leaves=64
num_cat=0
split_feature=637 618 620 32 1184 1376 930 90 612 521 64 1159 1060 596 654 256 389 507 1519 564 82 681 511 734 54 825 213 1355 287 509 76 1561 1062 464 578 406 448 109 76 615 578 618 510 112 237 530 692 374 457 423 209 660 94 351 736 616 734 623 825 80 735 41 126
split_gain=168957 41806.5 19977.4 7938.09 6155.85 6018.72 5584.57 5218.61 4073.5 3800.73 3705.63 3417.77 3075.18 2967.61 2715.62 2651.48 2455.1 2427.5 2264.87 2214.95 2139.14 2036.88 3215.86 2124.51 1830.81 1810.96 1637.59 1451.92 1413.62 1115.05 1108.42 1008.11 968.835 927.918 874.927 794.268 846.292 791.682 728.578 755.18 688.919 616.342 615.012 598.315 593.82 584.873 450.6 742.123 446.942 436.502 374.226 370.638 346.419 317.792 316.591 259.748 249.84 245.419 375.125 238.773 225.059 220.708 203.434
threshold=-1.0000000180025095e-35 1.0000000180025095e-35 114.50000000000001 0.003273763228207827 -1.0000000180025095e-35 -1.0000000180025095e-35 1.0000000180025095e-35 0.0005769902199972422 1.5000000000000002 0.0027856879169121389 0.0046782512217760095 -1.0000000180025095e-35 1.0000000180025095e-35 0.00097574858227744709 1.0000000180025095e-35 0.019166889600455764 4.0027169234235778e-05 0.00061004413873888563 -1.0000000180025095e-35 0.0091117904521524924 0.00065106290276162337 5.5000000000000009 0.0030753102619200949 -191743.99999999997 0.0012632872094400229 -7085.9999999999991 0.00022980492212809625 -1.0000000180025095e-35 4.8360643631895081e-06 0.0033890960039570932 0.0034860159503296022 -1.4999999999999998 -1.0000000180025095e-35 0.050455057993531234 0.0086983391083776968 0.0063423863612115392 0.011265316512435676 0.0033542469609528784 0.00063370275893248628 1.5000000000000002 0.0094037991948425787 1.0000000180025095e-35 0.061847791075706489 0.0036570915253832941 0.00075875618495047103 0.0020574665395542984 1.0000000180025095e-35 0.0035575692309066658 0.00084161479026079189 0.0030412457417696719 0.00028103367367293691 -1.0000000180025095e-35 0.0038543591508641843 0.00014716375881107527 29377.000000000004 1032199.0000000001 -20943.999999999996 1.0000000180025095e-35 -12285.999999999998 0.020678841508924965 -2835.9999999999995 0.0047234429512172946 0.0013625093270093205
decision_type=2 2 2 2 2 2 2 2 2 2 2 2 2 2 2 2 2 2 2 2 2 2 2 2 2 2 2 2 2 2 2 2 2 2 2 2 2 2 2 2 2 2 2 2 2 2 2 2 2 2 2 2 2 2 2 2 2 2 2 2 2 2 2
left_child=9 2 4 24 -2 55 11 10 13 18 38 17 -11 33 32 62 -14 -5 20 28 -1 22 -13 43 -3 -17 -12 -21 35 31 54 -22 37 44 -25 52 -37 -9 -7 -40 -26 -18 46 -24 -4 -28 47 -34 -30 -35 -48 -8 53 -15 -19 -6 -33 60 -59 61 -52 -20 -10
right_child=1 3 8 6 5 7 51 14 15 12 26 21 16 19 -16 25 41 30 59 27 29 -23 23 34 40 -27 45 -29 48 -31 -32 56 42 49 -36 36 -38 -39 39 -41 -42 -43 -44 -45 -46 -47 50 -49 -50 -51 57 -53 -54 -55 -56 -57 -58 58 -60 -61 -62 -63 -64
leaf_value=0.048051605190355416 -0.083556048999909177 -0.02848647224388039 -0.033343718030541612 -0.057119752527149931 -0.026083608719175505 0.079608477354381202 0.088462683053221275 0.071472633088248791 -0.078789066591328713 -0.082117415932452822 -0.069227984717554425 -0.072437212084226696 0.064774677338337305 0.074115286262461555 -0.014063235087181075 -0.045763409783178208 -0.0050738505197399 0.069562970738293123 -0.083424830478546513 0.036010997818337553 -0.0049145842204666446 -0.083274234815620921 -0.0071456052608572301 0.069010138527721462 0.081651438443450741 0.070330885717335742 -0.022479613878364203 -0.057145828495857455 0.022967643695969358 0.011701592044633891 -0.030318834481559139 -0.07798439781438446 0.077182301818334575 -0.025306297372657945 -0.0045682628706776203 0.051699705806656497 -0.02834956253909825 -0.013698515451701906 -0.013158759780279342 0.066612168612353889 0.01711653450873768 -0.070363654117970006 0.024934551146404492 -0.076284522198442284 0.043188898392408331 0.049982544285593816 0.039248178643727823 0.0042160734609998111 -0.042855095409187881 -0.084399447844055314 0.052883866101594949 0.033850238590509125 0.027200767787808579 0.033346732999328443 0.021484326547209588 -0.076979600551027053 -0.040392452641407763 0.081641954194971833 0.029621623736496579 -0.047923087650792312 0.082348496050582629 -0.051097116430807547 -0.051560245530789563
leaf_count=2069 2642 2517 2020 5159 2075 7767 2637 2398 5914 6624 4309 15443 4279 15184 3228 2405 3119 4005 161538 2931 2423 21898 2054 3569 7826 3082 2043 3991 2164 2048 2200 16612 4480 2220 3010 3513 2141 2040 2218 2602 2144 2768 2076 3330 2066 2494 2177 2058 2000 2927 2693 2433 2273 2223 2121 2013 2029 3599 2333 2013 194328 2212 5293
internal_value=0 0.780048 1.11633 -0.518631 1.37453 1.40786 -0.790853 1.44916 0.0988312 -1.48257 0.49984 -0.955672 -0.560524 0.409648 1.54235 -0.752711 0.131755 -0.0588519 -1.56441 0.668411 -1.00009 -1.20334 -0.837808 -0.055956 0.962376 0.387329 -0.495287 -0.354442 0.909326 -1.17704 0.613948 -1.3168 1.57008 -0.607495 0.708943 1.08865 0.425725 0.640209 1.20603 0.594269 1.35325 -0.71081 1.58977 -0.996472 0.106213 0.346057 1.60065 1.07938 -0.174244 -1.17606 1.6175 1.24631 1.2806 1.37776 1.0561 -1.02111 -1.47761 1.62654 1.22114 -1.65116 1.63885 -1.65976 -1.31784
internal_count=600000 392266 311920 80346 249573 246931 67859 242843 62347 207734 21433 62789 16790 45653 221410 16694 10166 13485 190944 36420 25181 49304 27406 11963 12487 5487 8846 6922 29498 23112 8326 21064 218182 9233 6579 25334 5654 4438 12587 4820 9970 5887 213744 5384 4086 4537 211668 6538 4164 5147 205130 5070 19680 17407 6126 4088 18641 202953 5932 165763 197021 163750 11207
shrinkage=0.05


Tree=5
num_leaves=64
num_cat=0
split_feature=637 618 620 2 1315 169 1159 1268 509 578 681 89 437 75 1323 532 1060 511 328 1432 515 825 618 682 205 626 511 402 655 685 352 825 16 736 1545 507 457 512 194 114 612 557 373 66 248 418 1261 128 7 442 1394 775 355 692 29 1426 520 1092 22 498 617 23 32
split_gain=154756 38248.6 18441.7 7344.98 5754.59 5085.75 4631.11 3765.93 3552.68 3477.48 3456.37 3327.73 2880 2662.74 2660.05 5147.01 2500.15 2086.25 1840.28 1709.67 1624.58 1539.24 1503.78 1830.78 1463.17 1362.41 1403.44 1269.04 1162.68 1099.07 1503.34 1050.43 1016.8 952.203 945.895 885.795 810.307 774.568 763.98 763.391 761.398 1565.26 630.026 548.182 547.619 433.105 391.902 361.398 351.335 349.826 334.447 483.224 317.151 270.118 420.664 267.275 288.529 273.509 251.243 251.058 237.925 210.961 206.562
threshold=-1.0000000180025095e-35 1.0000000180025095e-35 114.50000000000001 0.0038897336926311259 -1.0000000180025095e-35 0.00024416230735369032 -1.0000000180025095e-35 1.0000000180025095e-35 0.015293444041162731 0.016621400602161888 5.5000000000000009 0.0012556061265058818 7.2431739681633203e-05 0.0010283149313181641 1.0000000180025095e-35 0.00051748193800449382 1.0000000180025095e-35 0.00069918291410431277 5.9343938119127422e-05 1.0000000180025095e-35 0.049753494560718543 -2318.4999999999995 1.0000000180025095e-35 1.0000000180025095e-35 0.00021365646534832197 1220115456.0000002 0.0037158937193453316 0.00063322603818960499 -1.0000000180025095e-35 766208.00000000012 0.0028914165450260047 -1157.9999999999998 0.0028992015868425374 29377.000000000004 1.0000000180025095e-35 0.061664123088121421 0.00099025387316942237 5002.5000000000009 0.0019921818748116498 0.0043269076850265273 1.5000000000000002 0.0030964330071583395 0.00016352059901691976 0.0035751225659623746 0.0041672897059470424 0.0012488864012993874 1.0000000180025095e-35 0.0019190172897651794 0.0037475853459909563 7.5658106652554138e-05 -1.0000000180025095e-35 -3.3904124498367305 9.2798763944301771e-06 1.0000000180025095e-35 0.0031183239771053199 -1.0000000180025095e-35 0.0067728648427873859 -1.0000000180025095e-35 2.0229867004673e-05 7.4407598731340854e-05 213760.00000000003 0.0011897158692590894 0.0049183897208422431
decision_type=2 2 2 2 2 2 2 2 2 2 2 2 2 2 2 2 2 2 2 2 2 2 2 2 2 2 2 2 2 2 2 2 2 2 2 2 2 2 2 2 2 2 2 2 2 2 2 2 2 2 2 2 2 2 2 2 2 2 2 2 2 2 2
left_child=8 2 4 10 31 9 17 11 14 20 13 27 -13 -3 58 -16 -10 -5 34 24 47 38 23 46 -7 26 -8 -4 29 35 48 -2 -30 -19 36 50 60 -15 -20 -38 41 62 -9 -43 -40 -11 -17 -6 -31 -12 51 -26 -18 54 -52 56 -55 -57 -1 -29 -14 -44 -27
right_child=1 3 7 6 5 19 25 42 16 45 49 12 18 37 15 22 52 33 21 -21 -22 -23 -24 -25 28 40 -28 59 32 30 -32 -33 -34 -35 -36 -37 39 -39 44 -41 -42 43 61 -45 -46 -47 -48 -49 -50 -51 53 -53 -54 55 -56 57 -58 -59 -60 -61 -62 -63 -64
leaf_value=-0.047603993686835877 0.024902740170047205 -0.030978872975188407 0.025015791055404402 -0.045242060102079151 0.079603092033775094 -0.011027079519366474 -0.065712939723989547 -0.0048240895496237078 -0.076717209475569176 -0.018895768800895323 -0.085923735214074454 -0.056800107675950701 0.031240870319705273 0.074752655917509611 0.07175770275281923 -0.070112967660304837 0.059482582127348166 0.065070861989188003 -0.060929674577088956 -0.013596678620358335 -0.031643760664777122 0.06817929510619096 -0.077565343592169059 0.033559608434131478 0.076959670512019129 -0.03622758425837589 0.050785513649043074 -0.078655765450053178 0.0720713974751339 0.078277825049910418 -0.034481005699656384 -0.062370608239528551 -0.020897261063553441 -0.0036110168699685116 -0.0038204556426520162 0.01362043301879874 0.049151639102573058 0.0074081178016004393 -0.036242325548010455 -0.029076123079739238 -0.078958729150496412 -0.032914581582735157 -0.079637241830194619 0.037579486960158726 0.032211916886806628 -0.078816510136776902 -0.027503668408167644 0.030343811957531178 0.030285752284831324 -0.027410175770397966 0.019900094562476055 0.014696325242273968 0.0084859918930237557 0.077112552796566022 0.07917838846370702 0.042826892651287841 0.030998111068229729 0.080020636963873154 -0.08065526523163663 -0.040127570658755482 0.06681022345204668 -0.042218096280512651 -0.071064544559106449
leaf_count=2419 2176 3725 2302 4764 6185 2074 2008 2039 3279 2018 2167 3820 2120 12043 3246 6569 2871 5263 3214 2335 2128 2479 22769 3043 3344 2008 2170 3826 2401 5054 2058 3900 2386 3357 3210 2226 3310 2046 2085 2043 20775 2324 5100 2152 2719 3106 3332 2023 2272 2005 2025 2092 2167 3284 3076 2075 2448 188887 158039 3128 18751 2201 13539
internal_value=0 0.750101 1.07414 -0.497472 1.32478 1.3744 -0.874911 0.0944658 -1.43051 0.251422 0.500094 0.30242 0.535184 0.890502 -1.4857 -1.00916 -0.132825 0.165922 0.695664 1.45207 0.932176 -0.0279675 -1.23317 -0.684229 1.47025 -1.1893 -0.0985764 -0.796153 1.48628 1.5084 0.828794 -0.614575 0.503181 0.759364 0.955228 1.53933 1.08238 1.29755 -0.455607 0.384025 -1.30421 -1.02261 -1.08914 0.0239418 0.0504698 -1.10285 -1.11176 1.34571 1.26379 -1.15322 1.55331 1.05503 0.748706 1.56688 1.10718 1.57908 1.14623 1.59225 -1.603 -1.22636 1.26312 -1.36672 -1.33048
internal_count=600000 392266 311920 80346 249573 243497 58360 62347 207734 15460 21986 53007 43751 17814 199417 38959 8317 13384 39931 228037 10336 10497 35713 12944 225702 44976 4178 9256 223628 218841 9384 6076 4787 8620 29434 209457 26224 14089 8018 5353 40798 20023 9340 4476 4804 5124 9901 8208 7326 4172 207231 5436 5038 201795 5101 196694 5732 190962 160458 6954 20871 7301 15547
shrinkage=0.05


Tree=6
num_leaves=64
num_cat=0
split_feature=637 618 620 32 1184 1376 660 90 1164 521 64 784 1060 328 691 654 589 389 1519 612 529 825 54 1407 213 448 1159 1303 238 612 509 405 784 626 1445 1062 1561 28 109 578 76 496 578 611 523 402 618 655 537 692 554 400 1319 545 514 209 618 389 71 616 1438 775 41
split_gain=142075 35053 17085.5 6740.98 5455.05 5135.02 4799.04 4618.55 3491.3 3318.39 3181.76 2877.31 2641.89 2481.46 2410.43 2356.13 2305.62 2067.96 2053.82 1966.29 1834.59 1832.11 1563.56 1490.33 1396.65 1370.52 1151.12 1093.63 1751.29 1067.75 1032.68 1011.72 1007.1 974.213 1387.66 897.864 888.069 813.243 704.034 671.522 645.556 677.917 612.477 584.923 565.471 563.566 537.361 437.571 498.932 415.631 673.112 386.217 378.744 366.768 353.168 343.305 238.216 297.399 233.691 226.455 225.785 402.456 212.891
threshold=-1.0000000180025095e-35 1.0000000180025095e-35 114.50000000000001 0.003273763228207827 -1.0000000180025095e-35 -1.0000000180025095e-35 -1.0000000180025095e-35 0.0005769902199972422 -1.0000000180025095e-35 0.0027856879169121389 0.0046782512217760095 -6.6527805328369132 1.0000000180025095e-35 5.6738244893495e-05 1.5000000000000002 1.0000000180025095e-35 0.0069234962575137624 4.0027169234235778e-05 -1.0000000180025095e-35 3.5000000000000004 0.024270695634186271 -2034.4999999999998 0.0012632872094400229 1.5000000000000002 0.00022980492212809625 0.015915264375507835 -1.0000000180025095e-35 -1.0000000180025095e-35 0.0014389129355549814 1.0000000180025095e-35 0.0033890960039570932 0.0017897405195981266 -6.543670415878295 1250672000.0000002 -1.4999999999999998 -1.0000000180025095e-35 -1.4999999999999998 0.0037375242682173852 0.0033542469609528784 0.0094037991948425787 0.00063370275893248628 1.0000000180025095e-35 0.0094037991948425787 6.5776054859161386 0.0026537464000284676 0.00085643038619309675 1.0000000180025095e-35 -1.0000000180025095e-35 0.0069169520866125831 1.0000000180025095e-35 0.0071372112724930057 0.01231031119823456 -1.0000000180025095e-35 0.0075779173057526359 16943.500000000004 0.00028103367367293691 1.0000000180025095e-35 0.00059617302031256269 0.014979973901063206 1032199.0000000001 1.0000000180025095e-35 -3.2108901739120479 0.0047234429512172946
decision_type=2 2 2 2 2 2 2 2 2 2 2 2 2 2 2 2 2 2 2 2 2 2 2 2 2 2 2 2 2 2 2 2 2 2 2 2 2 2 2 2 2 2 2 2 2 2 2 2 2 2 2 2 2 2 2 2 2 2 2 2 2 2 2
left_child=9 2 4 22 -2 59 14 10 33 18 40 16 -11 19 29 35 26 -14 20 23 30 32 -3 25 -12 37 -8 -13 47 -5 36 44 -15 -4 -35 38 -1 51 -9 -30 -7 -42 -24 49 -27 -26 -19 48 -29 50 -37 -10 -39 -53 -18 -51 57 -38 62 -6 -57 -62 -20
right_child=1 3 8 6 5 7 11 15 13 12 24 27 17 21 -16 -17 54 46 58 -21 -22 -23 42 -25 45 31 -28 28 39 -31 -32 -33 -34 34 -36 43 56 52 -40 -41 41 -43 -44 -45 -46 -47 -48 -49 -50 55 -52 53 -54 -55 -56 60 -58 -59 -60 -61 61 -63 -64
leaf_value=-0.0028742784693149078 -0.079814405245889397 -0.025918190017709702 -0.072415030570573871 0.017325009206746223 -0.024145165035402177 0.074293964952768118 0.023965748452216259 0.066154025567715477 0.068304671082620588 -0.076849623427068359 -0.065105961148239175 -0.077196924572090667 0.060468039814857301 0.0058218123097804227 0.085982458166890707 -0.012970341760686092 0.078448102178985596 -0.0039811975944666024 -0.078216653923475321 -0.049579050815464015 0.04723894163816883 0.045862011750068814 0.076814972696222325 -0.046523884369090301 0.055076961274480807 0.063923138652815778 -0.064148262355756672 -0.062112498020834676 0.034791242416238231 -0.071739954028802275 0.014770009520226625 -0.058803737495312675 -0.061858631927036015 0.034849150352544156 -0.06708060678255727 0.0019098558457335945 -0.026312030687371764 -0.015860539379120454 -0.014627171414362478 -0.033883525027583516 -0.0091657677447226325 0.066681504549084294 0.015646254933448123 0.024270781050161724 -0.0098617442903320106 -0.016433265644919062 -0.065399706349495365 -0.078453044405928041 -0.01367068586831238 0.035531814494236501 0.071924450830947423 0.008925530445890343 0.043899030398085293 0.064726121814375384 0.021984226610064217 0.076825584833106378 -0.078067051686418698 -0.068991017105096947 -0.044006340473891507 -0.072044267874951579 0.074051838738349585 0.019398321824280858 -0.046085047988797069
leaf_count=2375 2642 2517 6312 3968 2075 7767 2131 2398 16424 6624 4309 21160 4279 3212 4224 3228 2494 3119 161346 2956 2002 3255 7826 2043 2013 2175 5425 7005 3107 2112 2000 2023 7307 2808 2640 2029 2541 2234 2040 2753 2495 2325 2144 2399 2051 2524 2768 8205 3188 2172 4536 2491 2085 2331 2087 195787 11212 5051 2197 2013 4810 2011 2220
internal_value=0 0.722492 1.03526 -0.47796 1.27939 1.31162 -0.731593 1.35064 0.0903235 -1.38379 0.450336 -0.962999 -0.51253 0.321363 0.541054 1.4403 -0.0834648 0.130279 -1.46192 0.596345 -0.918939 -0.410054 0.899367 0.734442 -0.474064 0.842953 -0.778757 -1.20025 -0.907224 -0.274676 -1.08225 -0.00268314 -0.819515 -0.903429 -0.280107 1.46694 -1.21751 1.05222 0.566166 0.0549146 1.11455 0.537999 1.26688 1.48639 0.558531 0.304401 -0.647154 -1.21776 -0.936677 1.49805 0.994166 1.21667 0.255664 0.714368 1.04857 1.51469 -1.36922 -1.09138 -1.54648 -0.949042 1.52358 1.15563 -1.55554
internal_count=600000 392266 311920 80346 249573 246931 67859 242843 62347 207734 21433 57555 16790 50587 10304 221410 12137 10166 190944 36813 25181 13774 12487 33857 8846 31814 7556 45418 24258 6080 23179 6249 10519 11760 5448 218182 21179 25565 4438 5860 12587 4820 9970 213744 4226 4537 5887 18398 10193 211345 6565 21246 4319 4822 4581 204780 18804 7592 165763 4088 202608 6821 163566
shrinkage=0.05


Tree=7
num_leaves=64
num_cat=0
split_feature=637 618 620 613 496 1184 1376 90 612 513 509 64 1323 532 654 55 1060 6 512 1094 464 256 618 682 213 253 1 825 834 677 836 1062 626 554 682 109 589 503 626 1506 406 512 578 447 1011 375 84 204 1431 374 557 736 409 105 113 109 41 616 413 623 825 32 1561
split_gain=130687 32197.2 15868.4 6188.02 10125.3 5010.2 4731.9 4321.31 3234.29 3189.51 3142.11 2912.68 2410.08 4400.5 2198.4 2183.85 2183.55 2123.56 1881.6 1522.38 1614.45 1441.66 1386.32 1653.89 1274.73 1139.65 1127.6 996.149 946.337 917.45 895.406 850.773 791.119 742.832 720.323 646.019 632.735 576.315 525.543 1126.28 519.73 489.415 435.692 420.234 392.211 379.785 376.573 444.465 352.23 598.575 338.296 315.595 302.965 300.233 287.275 276.169 247.485 212.408 185.065 177.355 319.473 171.545 169.139
threshold=-1.0000000180025095e-35 1.0000000180025095e-35 114.50000000000001 14.500000000000002 0.0020912376930937175 -1.0000000180025095e-35 -1.0000000180025095e-35 0.0005769902199972422 2.5000000000000004 96.649932861328139 0.014898312278091909 0.0046782512217760095 1.0000000180025095e-35 0.00051748193800449382 1.0000000180025095e-35 0.00078127457527443777 1.0000000180025095e-35 0.0037978105247020726 5182.5000000000009 1.5000000000000002 0.037370238453149802 0.015038701239973308 1.0000000180025095e-35 1.0000000180025095e-35 0.00022980492212809625 0.002387061715126038 0.0093766674399375933 -7749.4999999999991 -26093.999999999996 5.5000000000000009 2968.5000000000005 -1.0000000180025095e-35 1378713024.0000002 0.01078774966299534 1.0000000180025095e-35 0.0033542469609528784 0.00073587385122664284 0.061851406469941146 1337400384.0000002 -1.0000000180025095e-35 0.0024938324932008986 5514.5000000000009 0.011220589280128481 0.024084219709038738 -1.0000000180025095e-35 0.0025195779744535689 0.0030011875787749891 0.0026846576947718863 -1.0000000180025095e-35 0.0032753524137660865 0.0024699321947991852 1040.0000000000002 0.00052679813234135519 0.0035709212534129624 0.00039998556894715881 0.0035715039120987062 1.0000000180025095e-35 1032199.0000000001 0.0064240694046020516 1.0000000180025095e-35 -12285.999999999998 0.0047364777419716128 -1.0000000180025095e-35
decision_type=2 2 2 2 2 2 2 2 2 2 2 2 2 2 2 2 2 2 2 2 2 2 2 2 2 2 2 2 2 2 2 2 2 2 2 2 2 2 2 2 2 2 2 2 2 2 2 2 2 2 2 2 2 2 2 2 2 2 2 2 2 2 2
left_child=10 2 5 4 9 -2 57 11 15 34 12 36 56 -14 31 26 -12 29 25 28 -21 -10 23 46 -13 30 -4 -23 55 41 -17 35 -32 45 50 -9 -8 43 39 -27 -26 52 -36 48 -5 -19 47 -15 49 -33 61 -38 -6 -18 -50 -20 -1 -7 -58 -56 -61 -3 -28
right_child=1 3 8 44 17 6 7 14 21 -11 16 24 13 22 -16 18 53 33 19 20 -22 27 -24 -25 40 38 62 -29 -30 -31 32 37 -34 -35 42 -37 51 -39 -40 -41 -42 -43 -44 -45 -46 -47 -48 -49 54 -51 -52 -53 -54 -55 59 -57 58 -59 -60 60 -62 -63 -64
leaf_value=-0.042733525758003321 -0.076313594846735361 -0.046739287171931716 0.017596594185310281 -0.032319177082108429 0.072865829756146125 -0.022957432716459624 0.0034816676822609438 0.063730587480593723 -0.067933788737045794 0.075890612375192679 -0.072028937316975836 -0.062483259063608 0.067584667822074326 0.00028497315593491271 -0.012327681257182775 0.056164360824577708 0.061069571068155026 -0.0021750271920900348 -0.029132140338548718 0.068296417107571381 -0.031534526865491998 -0.043669343403800534 -0.072941448255111604 0.03355371466981346 0.050646427318920988 -0.010262921749661277 -0.039425049143167655 0.056561474725849992 0.021219920282578214 -0.0088089299864905057 -0.051832068567996749 0.071613767572890119 0.030821373757163675 0.046271422537964596 0.0048293374323408978 -0.013888576239619893 0.076169968564003709 0.024272683943887426 0.070077348449963994 0.064266898615738019 -0.017755511699266088 0.015017040870659063 -0.053047448682159451 0.03670776149833832 -0.074130422678632332 -0.053279817570286658 -0.07025654742129285 -0.063484615079749451 0.038213074473059175 0.0067658029573469062 -0.027313108307601388 0.037269390910927201 0.031990828210651447 0.011786956920497709 0.075045661419275614 -0.07645914240697009 -0.076429210854252 -0.069542912475916555 -0.047356637778151307 0.075556303999829294 0.02574951892518423 -0.074667134304075303 -0.07492625407278819
leaf_count=2416 2642 2636 3161 2655 14553 2075 2161 2398 8164 2057 3355 4309 3244 2390 3228 2565 2431 3377 2029 4364 2683 2023 22749 3041 2149 3310 2611 2002 2156 2117 2844 4612 2016 2013 2617 2040 7295 2600 10486 5682 2388 2046 2788 3400 19894 2717 5301 2204 2349 2169 2045 3131 2157 2647 192782 3323 155533 2013 2423 3681 2151 16674 2928
internal_value=0 0.697132 0.999792 -0.459589 -0.107616 1.23815 1.2695 1.3075 0.0865156 -0.971767 -1.3412 0.432493 -1.39488 -0.935035 1.39541 0.31377 -0.116829 0.741284 0.508622 -0.0777944 0.599747 -0.856787 -1.1459 -0.615714 -0.453132 0.828311 -0.608042 0.123875 -0.712313 1.0878 0.157324 1.42164 -0.351578 -0.138877 -1.15907 0.541861 1.07375 1.44088 1.08979 0.729137 0.289846 1.23309 -0.49554 1.45315 -1.38136 -0.493732 -1.03014 -0.602058 1.46519 1.00574 -1.32973 1.28557 1.35019 0.704647 1.48125 -1.16759 -1.50932 -0.909076 -1.51963 1.48993 1.1357 -1.41506 -1.16169
internal_count=600000 392266 311920 80346 57797 249573 246931 242843 62347 28817 207734 21433 199301 38929 221410 50158 8433 28980 41458 14555 7047 12189 35685 12936 8846 26903 8700 4025 7508 20873 7425 218182 4860 8107 26760 4438 12587 213744 19478 8992 4537 18756 5405 211144 22549 6094 9895 4594 207744 6781 21355 10426 16710 5078 200963 5352 160372 4088 157956 198614 5832 19310 5539
shrinkage=0.05


Tree=8
num_leaves=64
num_cat=0
split_feature=637 618 620 681 510 1315 169 734 1268 509 160 1377 122 1323 532 1159 1060 775 617 27 623 1499 1432 305 618 682 205 685 352 534 655 601 196 510 123 682 1159 248 256 784 512 457 472 171 362 7 1261 626 68 1394 775 59 1426 177 402 692 29 1092 22 144 7 558 41
split_gain=120440 29620 14775.4 5734.37 5746.73 4722.18 4244.56 3280.49 3069.43 2937.71 2850.72 2760.66 2699.71 2291.23 4040.66 2122.96 2006.46 1980.25 2326.49 1627.45 1501.48 1461.3 1429.61 1324.47 1311.04 1511.4 1257.28 1051.19 1502.63 976.244 930.285 923.888 855.523 827.575 816.972 795.385 823.334 752.046 737.802 651.408 631.81 569.443 547.394 517.32 437.459 379.778 365.843 362.281 349.999 334.187 442.436 292.794 261.62 329.44 259.815 256.683 380.517 260.341 246.339 224.857 193.82 188.385 177.861
threshold=-1.0000000180025095e-35 1.0000000180025095e-35 114.50000000000001 5.5000000000000009 0.002005004789680243 -1.0000000180025095e-35 0.00024416230735369032 -266495.99999999994 1.0000000180025095e-35 0.014898312278091909 0.00051110805361531686 -1.0000000180025095e-35 0.0022049205144867305 1.0000000180025095e-35 0.00051748193800449382 -1.0000000180025095e-35 1.0000000180025095e-35 -1.0000000180025095e-35 353264.00000000006 0.00096308306092396389 1.0000000180025095e-35 -1.0000000180025095e-35 1.0000000180025095e-35 1.0000000180025095e-35 1.0000000180025095e-35 1.0000000180025095e-35 0.00021365646534832197 766208.00000000012 0.0033440340775996451 0.0059343592729419479 -1.0000000180025095e-35 0.011292763054370882 0.003594004781916738 0.061847791075706489 0.0036220123292878274 1.0000000180025095e-35 -1.0000000180025095e-35 0.0041908731218427428 0.019166889600455764 -6.6377189159393302 7730.5000000000009 0.00093928308342583488 0.025282070040702823 0.00022978668130235749 1.0000000180025095e-35 0.0037475853459909563 1.0000000180025095e-35 1349428096.0000002 0.0041291911620646724 -1.0000000180025095e-35 -3.3904124498367305 0.0040211733430624017 -1.0000000180025095e-35 0.0026276073185727005 0.00068598429788835358 1.0000000180025095e-35 0.0031183239771053199 -1.0000000180025095e-35 2.0229867004673e-05 0.0027819420211017136 0.0038394110742956404 0.0016512348083779218 0.0047234429512172946
decision_type=2 2 2 2 2 2 2 2 2 2 2 2 2 2 2 2 2 2 2 2 2 2 2 2 2 2 2 2 2 2 2 2 2 2 2 2 2 2 2 2 2 2 2 2 2 2 2 2 2 2 2 2 2 2 2 2 2 2 2 2 2 2 2
left_child=9 2 5 4 12 32 10 40 11 13 29 23 35 58 -15 -5 -11 18 21 41 34 44 26 -4 25 46 -8 30 45 -7 33 -32 -2 49 60 54 -37 39 -23 -21 -6 -20 -10 -12 -13 -29 -16 -41 -39 50 -28 -18 53 -51 -3 56 -54 -57 -1 -25 -9 -38 -60
right_child=1 3 8 15 7 6 22 20 42 16 43 17 -14 14 24 -17 51 -19 19 37 -22 38 -24 59 -26 -27 27 28 -30 -31 31 -33 -34 -35 -36 36 61 48 -40 47 -42 -43 -44 -45 -46 -47 -48 -49 -50 52 -52 -53 55 -55 -56 57 -58 -59 62 -61 -62 -63 -64
leaf_value=-0.040537627138143309 0.018348127050779969 -0.029029518786730137 0.027497406116238732 0.019874409343017829 -0.0058732835962384804 -0.0099211049446235114 -0.012024644463855417 0.071965275587704533 -0.017858956727422166 -0.069985599068684248 -0.065168819877334846 -0.011664372724795218 0.054279673730901902 0.06520604523564083 -0.064004656724200748 -0.073483160247614518 0.011257709199488672 0.06657443622921419 0.01446672994281357 0.066838860460407545 -0.017788904923100046 -0.025766309381927078 -0.013668448642790758 -0.031067502451560747 -0.070806290642658337 0.031848239467924443 0.069894936040685668 0.070922473957699086 -0.043019757217006058 0.066436713934222444 -0.022052479009436497 0.073569932223878698 -0.059955049406312633 0.0059613079159784865 0.0013293414681461782 0.02413799242613646 -0.071628707801894356 0.024142625002243321 0.053463981556941313 -0.032849606552781192 -0.068640408400021016 -0.060617162184180742 -0.06910267639096089 -0.0031664751215281801 -0.067281612814774738 0.021931672421283719 -0.022228550882357204 0.024881112426186923 0.070650530970930381 0.069516661693177231 0.0085469002661157489 0.06015019802035583 0.015850863793268569 0.017188641725919166 -0.06738347640974672 0.036335326571339137 0.072957490714021106 0.073372301214604002 -0.074395839707312325 -0.071353039134015223 0.038147557721978843 -0.02740262573700197 -0.045750921428344374
leaf_count=2419 2356 2108 2455 2868 3867 2327 2074 14175 3460 3355 3986 2023 3018 3244 6567 23113 2739 9221 2018 2039 2995 2084 2335 2025 22749 3041 3220 5551 2005 7016 2215 2002 3720 2048 2198 2590 2048 2052 2876 2128 2954 2139 5880 2131 5182 2398 3328 2345 9486 3396 2072 2339 2025 2081 14369 2069 3072 189474 155533 4934 2016 2027 2420
internal_value=0 0.673636 0.966967 -0.442518 -0.0671075 1.20026 1.24714 0.572746 0.0829282 -1.30257 0.205712 0.272451 -0.764865 -1.35532 -0.903555 -1.25381 -0.11244 0.488669 0.264314 0.659318 0.969132 -0.447803 1.32094 -0.730525 -1.10744 -0.590632 1.33832 1.35393 0.697767 0.932574 1.38565 0.43929 -0.576887 1.40605 1.19219 -1.00181 -0.406992 0.927212 0.399709 0.377673 -0.659818 -0.482618 -0.999777 -0.867437 -1.0321 1.11185 -0.991268 -0.0526803 1.2448 1.41968 0.903544 0.672387 1.43355 0.985779 -1.24679 1.44641 0.991471 1.45918 -1.46852 -1.18869 1.35337 -0.988146 -1.47897
internal_count=600000 392266 311920 80346 54365 249573 243497 28205 62347 207734 15460 53007 26160 199301 38929 25981 8433 43593 34372 22207 21384 12165 228037 9414 35685 12936 225702 223628 9954 9343 213674 4217 6076 209457 18389 23142 6665 18050 4960 6512 6821 4157 9340 6117 7205 7949 9895 4473 11538 207409 5292 5078 202117 5477 16477 196640 5097 191543 160372 6959 16191 4075 157953
shrinkage=0.05


Tree=9
num_leaves=64
num_cat=0
split_feature=637 618 620 32 1315 930 90 612 521 64 1159 521 1060 1407 1519 507 358 681 511 514 654 736 1123 182 82 692 509 49 626 256 352 554 1431 251 1480 196 1062 402 402 1146 825 174 683 508 128 7 734 616 623 825 126 22 613 75 1519 519 233 692 374 80 214 43 447
split_gain=111164 27278.5 13815.8 5356.47 4301.93 3941.91 3764.5 3186.45 2788 2772.58 2333.71 2214.29 2154.49 1979.57 1844.81 1702.69 1677.23 1519.6 2264.26 1557.87 1512.67 1493.25 1684.43 1564.97 1487.2 1451.28 1339.53 1273.64 1238.59 1214.6 1185.91 999.21 984.783 938.136 865.751 793.747 714.959 706.21 665.129 600.976 776.066 570.188 516.387 493.277 472.965 468.807 435.491 407.787 399.414 482.361 372.417 334.34 314.172 289.437 267.203 266.078 263.529 258.013 457.832 240.859 222.896 450.824 188.349
threshold=-1.0000000180025095e-35 1.0000000180025095e-35 103.50000000000001 0.003273763228207827 -1.0000000180025095e-35 1.0000000180025095e-35 0.0005769902199972422 2.5000000000000004 0.0027856879169121389 0.0088807027786970156 -1.0000000180025095e-35 0.00048374586913269019 1.0000000180025095e-35 1.5000000000000002 -1.0000000180025095e-35 0.00061004413873888563 6.1893082602182417e-05 5.5000000000000009 0.0030753102619200949 118677.50000000001 1.0000000180025095e-35 27904.000000000004 1.0000000180025095e-35 0.0012404217268340292 0.00065106290276162337 1.0000000180025095e-35 0.061694694682955749 0.0020002205856144433 1289013440.0000002 0.015038701239973308 0.019878637045621875 0.0071372112724930057 1.0000000180025095e-35 0.0025235014036297802 1.0000000180025095e-35 0.003594004781916738 -1.0000000180025095e-35 0.001101082831155509 0.00075490339077077817 -1.0000000180025095e-35 -18.999999999999996 0.00028370562358759349 4.5000000000000009 0.0021326642017811541 0.0045815904159098872 0.0038047722773626451 -3599.9999999999995 264205.50000000006 1.0000000180025095e-35 -12285.999999999998 0.0037500247126445179 0.0013801327440887692 1.0000000180025095e-35 0.00053406952065415691 -1.0000000180025095e-35 0.0016199165838770571 0.0033083677990362052 1.0000000180025095e-35 0.0027980334125459199 0.020678841508924965 0.0020902288379147653 0.0017971345805563035 0.024084219709038738
decision_type=2 2 2 2 2 2 2 2 2 2 2 2 2 2 2 2 2 2 2 2 2 2 2 2 2 2 2 2 2 2 2 2 2 2 2 2 2 2 2 2 2 2 2 2 2 2 2 2 2 2 2 2 2 2 2 2 2 2 2 2 2 2 2
left_child=8 2 4 27 35 10 9 11 14 30 15 38 -10 21 24 -5 46 18 -12 25 26 37 23 -23 -1 -20 36 -3 -15 -9 47 -31 44 43 52 -2 42 50 -4 40 -38 -11 -8 -26 -25 -27 -14 -6 53 -50 -13 -39 -17 -41 -18 -29 -7 58 -55 60 -16 -62 -59
right_child=1 3 7 5 6 56 20 29 12 41 17 13 16 28 59 34 54 -19 19 -21 -22 22 -24 32 33 45 -28 55 -30 31 -32 -33 -34 -35 -36 -37 39 51 -40 48 -42 -43 -44 -45 -46 -47 -48 -49 49 -51 -52 -53 -54 57 -56 -57 -58 62 -60 -61 61 -63 -64
